// Poids CNN générés automatiquement

const float weights_0[624] = { -0.157456f, 0.093161f, -0.094024f, 0.194137f, -0.225385f, -0.089156f, -0.045704f, 0.089049f, 0.200167f, 0.004461f, 0.048521f, -0.008306f, -0.241458f, 0.229998f, 0.185090f, -0.027985f, -0.027308f, -0.101237f, -0.126196f, 0.301494f, -0.118353f, -0.202312f, 0.220358f, -0.217172f, -0.115459f, 0.325259f, 0.165965f, -0.032212f, -0.065493f, 0.189695f, 0.137931f, -0.016034f, 0.146837f, 0.029405f, 0.033532f, -0.135725f, 0.047526f, 0.282952f, 0.213493f, 0.351401f, 0.068705f, -0.085039f, -0.172094f, -0.032144f, -0.243255f, 0.158932f, 0.090258f, 0.088723f, 0.084186f, 0.096410f, 0.190234f, 0.147890f, -0.186986f, -0.280973f, -0.066631f, -0.103517f, 0.170954f, -0.087864f, -0.219008f, -0.133409f, 0.340959f, 0.131210f, -0.099960f, 0.174838f, 0.010882f, -0.082641f, -0.151786f, 0.049466f, 0.184467f, 0.121285f, -0.188370f, -0.321422f, 0.299946f, -0.203711f, 0.215319f, 0.005036f, 0.033853f, 0.155590f, 0.105135f, 0.182919f, 0.169298f, -0.113391f, -0.043333f, -0.103521f, 0.134467f, 0.268711f, -0.216686f, 0.094999f, 0.163400f, -0.078515f, 0.175236f, -0.119393f, 0.161874f, -0.191379f, 0.216085f, -0.113311f, -0.207213f, 0.059920f, -0.206328f, 0.131391f, -0.096407f, 0.089885f, 0.032140f, -0.131906f, 0.009447f, 0.102039f, -0.117767f, 0.246844f, -0.091450f, 0.095731f, -0.008905f, -0.120332f, -0.174285f, -0.267270f, 0.172076f, 0.125457f, -0.231018f, 0.127251f, -0.063910f, 0.055571f, 0.010110f, 0.071590f, 0.090439f, 0.204547f, -0.125168f, -0.045274f, -0.162018f, -0.035404f, -0.140558f, 0.162245f, 0.050772f, 0.084052f, 0.119895f, -0.008162f, 0.170575f, -0.208630f, -0.127404f, 0.077018f, -0.101317f, -0.009721f, -0.230797f, 0.186917f, 0.224287f, 0.009826f, 0.340813f, -0.263344f, -0.155581f, -0.091767f, -0.162143f, 0.200182f, -0.196301f, 0.173965f, 0.167512f, -0.301277f, -0.033855f, 0.184902f, -0.125559f, -0.055255f, -0.227536f, 0.072062f, -0.292990f, -0.203415f, 0.147698f, 0.133838f, -0.112042f, -0.073472f, 0.213848f, -0.252930f, -0.162896f, -0.130568f, 0.193388f, -0.281013f, 0.190241f, 0.274191f, -0.170698f, 0.207194f, 0.211369f, -0.312186f, 0.031951f, 0.116323f, -0.129629f, 0.061016f, 0.251096f, -0.007443f, -0.041044f, 0.176369f, -0.185177f, 0.248929f, 0.159006f, 0.060236f, -0.183199f, 0.243718f, -0.022913f, 0.050437f, 0.154442f, 0.279918f, -0.060433f, 0.004350f, -0.115646f, 0.265493f, -0.208342f, 0.093715f, 0.086622f, 0.142972f, 0.261904f, -0.119927f, -0.024992f, 0.077674f, -0.263147f, 0.113018f, 0.193022f, 0.098896f, 0.175334f, 0.114641f, -0.156087f, 0.247724f, -0.059577f, 0.051282f, 0.210816f, -0.089644f, 0.239671f, -0.233093f, 0.159593f, 0.066302f, -0.282307f, -0.162747f, -0.120638f, 0.190720f, 0.208866f, 0.251347f, -0.283928f, 0.165747f, 0.303049f, 0.201234f, -0.261443f, 0.140516f, -0.086963f, 0.137670f, -0.308304f, 0.070605f, 0.157260f, 0.210058f, 0.109247f, 0.226669f, -0.030339f, 0.087986f, -0.005065f, -0.168893f, -0.237586f, -0.114119f, -0.219187f, 0.093015f, -0.174925f, -0.065802f, -0.203433f, 0.123062f, 0.149169f, -0.232405f, -0.007766f, -0.075229f, -0.126228f, -0.148582f, 0.083261f, 0.094233f, 0.044677f, 0.033471f, 0.018516f, 0.205560f, -0.005081f, 0.059884f, 0.242059f, -0.126647f, -0.262385f, -0.315708f, 0.030824f, 0.199444f, 0.068384f, 0.310071f, -0.182308f, 0.134433f, 0.171357f, 0.213053f, 0.010269f, 0.041081f, -0.044135f, 0.133478f, -0.216389f, 0.034248f, -0.153213f, -0.029459f, -0.285585f, -0.150435f, 0.180265f, 0.260448f, 0.216845f, 0.164323f, -0.212619f, 0.008079f, -0.001799f, 0.144848f, -0.068333f, 0.222116f, 0.158403f, 0.181922f, 0.287250f, -0.060693f, -0.031697f, -0.103007f, -0.105107f, 0.105763f, -0.115057f, 0.113107f, -0.155415f, -0.099017f, -0.122618f, -0.159760f, -0.213019f, -0.007009f, -0.172901f, -0.057854f, -0.242041f, -0.281728f, -0.027265f, -0.155599f, -0.062177f, -0.011215f, -0.094193f, 0.082739f, 0.302123f, 0.183521f, -0.105772f, -0.258991f, 0.098722f, -0.257146f, -0.050546f, -0.028341f, 0.055806f, 0.097843f, 0.206477f, 0.035084f, 0.072581f, 0.122563f, -0.158242f, -0.010644f, -0.288165f, 0.152971f, 0.189851f, 0.091824f, 0.051213f, -0.012803f, -0.250947f, 0.139245f, 0.115022f, -0.254606f, -0.043699f, 0.234055f, 0.259884f, -0.162153f, 0.226168f, -0.270018f, -0.242877f, 0.009762f, -0.073505f, -0.245316f, 0.154467f, 0.065638f, -0.055801f, -0.149572f, -0.170369f, 0.128630f, -0.104815f, -0.203883f, 0.045694f, -0.198135f, -0.259149f, 0.252146f, 0.151307f, 0.043184f, -0.099579f, -0.066685f, -0.263754f, -0.014149f, 0.131334f, -0.073794f, -0.188725f, 0.188840f, 0.215917f, -0.148964f, 0.280513f, 0.188886f, 0.129045f, 0.167734f, -0.287207f, 0.074082f, -0.261020f, -0.121365f, 0.010807f, 0.168710f, 0.106323f, -0.186952f, 0.135737f, 0.109222f, 0.254949f, 0.147960f, 0.209590f, -0.083472f, -0.222260f, 0.280805f, -0.025985f, 0.130727f, 0.029311f, 0.215893f, 0.067199f, 0.069247f, 0.184435f, -0.053020f, 0.273965f, 0.027698f, -0.155184f, -0.196050f, -0.014936f, -0.095326f, -0.237158f, 0.057023f, -0.134395f, -0.203339f, -0.067519f, 0.128592f, -0.226357f, 0.122762f, 0.053704f, -0.156340f, -0.126963f, 0.236728f, 0.134050f, 0.254502f, -0.323704f, -0.084375f, 0.117992f, -0.222244f, 0.013757f, 0.099675f, 0.101830f, 0.090821f, -0.185876f, 0.098309f, -0.003377f, 0.169908f, -0.252002f, 0.111527f, -0.077914f, 0.000499f, -0.047627f, -0.025340f, -0.129204f, 0.171256f, -0.186522f, 0.156606f, -0.162912f, 0.178034f, 0.218683f, -0.255437f, -0.161697f, -0.099730f, -0.194812f, -0.120962f, 0.020584f, -0.169041f, -0.040160f, 0.088013f, -0.283045f, -0.115805f, -0.040199f, 0.050968f, 0.258042f, 0.162321f, 0.210210f, 0.171278f, -0.238636f, -0.250030f, 0.171935f, -0.029213f, 0.262839f, -0.115321f, 0.303318f, -0.251230f, -0.059470f, 0.181687f, -0.182805f, 0.062312f, -0.247909f, 0.120303f, -0.260402f, 0.086703f, 0.115318f, 0.084571f, -0.127678f, 0.152129f, -0.257205f, -0.060088f, -0.221871f, 0.033933f, 0.238074f, 0.181014f, 0.095112f, -0.065517f, 0.040864f, -0.266335f, 0.118255f, 0.200125f, 0.077670f, -0.150637f, 0.260475f, -0.109389f, -0.074250f, 0.217898f, -0.276417f, 0.071823f, 0.110063f, -0.033001f, -0.224243f, 0.191780f, 0.112277f, 0.308246f, -0.031218f, -0.003026f, 0.200291f, -0.114626f, -0.014735f, 0.089707f, 0.196900f, 0.260455f, 0.090053f, -0.070736f, -0.278962f, -0.235531f, -0.244882f, -0.253228f, 0.149823f, -0.129266f, -0.077170f, 0.065647f, 0.076505f, -0.058097f, 0.105019f, -0.009528f, -0.229045f, 0.237466f, 0.233028f, -0.046488f, 0.191930f, 0.049372f, 0.027998f, 0.006828f, -0.267551f, -0.039864f, -0.022625f, -0.259977f, 0.209625f, -0.095050f, -0.274949f, 0.206858f, -0.001081f, -0.040109f, -0.308806f, -0.160095f, 0.054504f, 0.181759f, 0.201770f, -0.163791f, 0.212771f, 0.078398f, 0.235407f, 0.191959f, 0.196929f, 0.053363f, 0.093407f, -0.123323f, 0.080254f, -0.193950f, -0.023660f, -0.147925f, 0.130550f, 0.092277f, 0.190965f, -0.118166f, -0.120793f, -0.228067f, 0.109210f, -0.122089f, 0.129822f, -0.162758f, -0.109409f, 0.073443f, -0.158609f, 0.206894f, 0.145891f, 0.095060f, -0.236457f, -0.217347f, 0.105310f, 0.017665f, -0.052683f, 0.229260f, 0.116985f, -0.090008f, -0.082222f, 0.279156f, 0.107503f, -0.138180f, -0.108706f, 0.098787f, -0.173687f, -0.247125f, 0.114343f, -0.036172f, 0.134533f, 0.088096f, -0.272781f, 0.022340f, 0.008760f, -0.145692f, 0.303151f, -0.106292f };
const float biases_0[16] = { 0.061520f, 0.064821f, -0.011888f, 0.037834f, 0.057707f, -0.000924f, 0.033104f, 0.032598f, 0.033903f, 0.033120f, -0.019546f, 0.034151f, 0.057002f, 0.000277f, -0.002658f, 0.040140f };
const float weights_1[1536] = { 0.196662f, 0.055330f, 0.090788f, 0.179138f, 0.233438f, 0.074002f, -0.081325f, 0.094251f, 0.069033f, 0.133091f, -0.139944f, -0.154439f, -0.099630f, -0.118765f, 0.175283f, 0.182845f, 0.097483f, -0.150538f, 0.134477f, -0.044446f, 0.063739f, -0.161721f, 0.042250f, -0.001534f, 0.192127f, 0.026104f, -0.192697f, -0.161339f, -0.202694f, 0.097964f, -0.108036f, 0.181648f, -0.106590f, 0.101165f, -0.033875f, 0.197300f, 0.151904f, -0.134740f, -0.206255f, 0.154870f, 0.078447f, -0.030420f, 0.137099f, -0.149845f, -0.021040f, -0.171435f, 0.134585f, -0.081697f, -0.093531f, -0.063670f, 0.162962f, -0.125752f, 0.086460f, -0.159811f, -0.018482f, -0.130091f, 0.121491f, -0.036339f, 0.110271f, -0.174147f, 0.156103f, -0.018168f, 0.026310f, 0.036625f, 0.113297f, 0.111317f, 0.157861f, 0.167375f, -0.036458f, 0.122326f, 0.004777f, 0.113406f, -0.182348f, 0.124387f, 0.092457f, -0.214184f, 0.005208f, -0.035335f, 0.094308f, -0.081149f, 0.071377f, -0.200848f, 0.197462f, 0.204252f, 0.084619f, -0.088192f, -0.067863f, -0.182431f, -0.179601f, 0.072921f, 0.120516f, 0.025171f, -0.066445f, 0.140111f, -0.108111f, 0.049789f, -0.158695f, 0.013038f, 0.072684f, 0.187692f, -0.081853f, -0.203362f, -0.068220f, 0.014012f, -0.135089f, -0.104566f, 0.184328f, 0.037471f, -0.280285f, 0.082389f, 0.135814f, -0.221239f, -0.170105f, 0.023001f, 0.179982f, 0.043740f, -0.027618f, -0.080690f, -0.095393f, 0.033126f, -0.114388f, -0.124113f, 0.028147f, -0.113870f, -0.047748f, 0.200705f, 0.118184f, 0.023733f, 0.057818f, -0.009699f, 0.146069f, 0.098194f, -0.281187f, 0.027565f, 0.020896f, -0.200145f, 0.108864f, -0.245049f, -0.177583f, -0.143073f, -0.101717f, 0.133595f, -0.114769f, -0.079392f, -0.064529f, 0.127351f, -0.090209f, -0.085444f, -0.036183f, 0.117634f, -0.044728f, -0.129945f, -0.021449f, -0.214467f, 0.095970f, 0.125741f, 0.161258f, 0.158942f, 0.018412f, -0.125272f, 0.072448f, 0.163121f, 0.053000f, 0.149903f, -0.202983f, 0.124164f, 0.073531f, 0.138457f, -0.055688f, 0.134829f, -0.055052f, -0.234151f, 0.044547f, 0.072467f, -0.175407f, -0.211303f, 0.158552f, -0.070487f, -0.019969f, -0.178094f, 0.090494f, 0.038418f, 0.078452f, -0.018067f, -0.029897f, 0.169073f, -0.015390f, -0.129361f, -0.116024f, 0.001078f, -0.106239f, -0.215823f, -0.075861f, -0.048395f, -0.154018f, 0.048156f, -0.050609f, -0.122291f, 0.049172f, 0.106464f, 0.099605f, 0.036205f, -0.184292f, -0.034542f, -0.049487f, -0.006022f, 0.145885f, 0.055025f, -0.080980f, 0.060593f, -0.011742f, -0.080930f, -0.139502f, -0.001924f, 0.171443f, 0.214383f, 0.115890f, -0.021643f, 0.007324f, -0.054799f, 0.012783f, -0.142038f, -0.079398f, -0.166145f, -0.197158f, -0.201563f, 0.059614f, -0.082887f, 0.101222f, -0.093308f, -0.104184f, 0.149414f, 0.180201f, 0.288507f, 0.097461f, -0.192057f, -0.183863f, 0.085298f, 0.082644f, -0.008632f, 0.116288f, 0.213596f, -0.045492f, 0.138512f, 0.112181f, 0.100698f, -0.151233f, 0.209551f, -0.016303f, 0.111186f, -0.075588f, -0.147160f, -0.014188f, 0.141983f, -0.238526f, -0.165727f, -0.241002f, 0.066777f, 0.041261f, 0.028422f, -0.144115f, 0.064428f, 0.099259f, 0.159854f, 0.181076f, -0.076360f, -0.082363f, 0.057349f, 0.194503f, -0.044210f, -0.046901f, -0.155917f, -0.039961f, 0.075281f, 0.049438f, 0.128550f, 0.063725f, 0.167560f, -0.150379f, -0.112104f, -0.063216f, -0.245186f, 0.125381f, 0.181050f, 0.031626f, 0.227051f, -0.134050f, 0.146763f, 0.223840f, -0.046555f, -0.159152f, 0.209854f, 0.216161f, -0.116131f, -0.049115f, 0.095526f, -0.201731f, 0.035465f, -0.175030f, 0.123135f, -0.041119f, -0.099950f, -0.129327f, 0.060961f, 0.180807f, 0.230361f, 0.214493f, -0.161237f, 0.113926f, 0.199754f, 0.040876f, -0.154371f, 0.186838f, -0.191512f, 0.182559f, -0.110416f, -0.160617f, 0.165633f, 0.005155f, 0.165998f, -0.211694f, 0.150749f, 0.217595f, -0.058479f, 0.158092f, -0.176623f, 0.228500f, -0.190101f, -0.125694f, 0.146009f, -0.001755f, 0.036259f, 0.120231f, -0.018645f, -0.048635f, 0.100174f, -0.151091f, 0.123347f, 0.078723f, 0.251536f, 0.123501f, 0.202636f, 0.191810f, 0.233621f, 0.103454f, -0.136793f, 0.178650f, -0.054799f, 0.008380f, -0.051006f, 0.139689f, 0.170595f, -0.078325f, 0.202289f, 0.029746f, 0.031213f, -0.053850f, -0.052386f, 0.081315f, 0.137879f, -0.031309f, 0.178339f, 0.014120f, 0.134156f, -0.188381f, -0.145538f, -0.233568f, 0.131912f, 0.214913f, 0.061035f, 0.057724f, -0.029427f, -0.083199f, 0.163556f, 0.193754f, -0.169561f, -0.104136f, 0.033480f, 0.120228f, -0.141501f, -0.137654f, -0.041936f, -0.151602f, 0.191345f, 0.080422f, 0.243097f, -0.066676f, -0.186404f, 0.127246f, 0.040522f, -0.007511f, 0.064140f, -0.084455f, 0.196216f, -0.025249f, 0.092098f, 0.071535f, 0.134766f, -0.128037f, 0.084439f, -0.028683f, -0.140200f, -0.048729f, -0.101430f, -0.013942f, -0.053263f, 0.104586f, 0.200791f, -0.099842f, -0.043579f, 0.102288f, 0.077125f, 0.205134f, 0.141428f, -0.143473f, 0.130154f, 0.030038f, 0.030473f, -0.200707f, -0.221525f, -0.199226f, -0.055577f, 0.065416f, 0.203322f, -0.124939f, -0.203702f, -0.232852f, -0.112750f, -0.067830f, -0.040900f, 0.161676f, -0.066071f, -0.211783f, -0.185838f, 0.022943f, -0.085450f, -0.036749f, 0.142949f, -0.070993f, -0.229134f, 0.083084f, -0.196946f, -0.057270f, 0.213033f, -0.086145f, 0.106108f, 0.036942f, 0.075847f, -0.061462f, 0.174287f, 0.024833f, -0.056307f, -0.130464f, -0.166606f, -0.044906f, -0.093419f, 0.052982f, 0.252772f, -0.040488f, -0.036710f, 0.091049f, -0.026157f, 0.231388f, 0.118347f, 0.135816f, -0.015433f, 0.055641f, 0.259286f, -0.261693f, -0.093509f, 0.194801f, -0.083930f, -0.016454f, -0.067369f, 0.009763f, 0.179278f, -0.167156f, 0.127079f, 0.093618f, -0.185054f, -0.037019f, -0.130790f, 0.014357f, -0.195176f, -0.210385f, -0.236172f, -0.092097f, -0.102043f, 0.145865f, 0.112898f, 0.059159f, 0.021464f, -0.027501f, 0.087360f, -0.162351f, -0.212799f, -0.039123f, -0.094187f, -0.173558f, 0.154943f, 0.186310f, 0.051918f, 0.035314f, -0.009080f, -0.108144f, -0.181732f, 0.036917f, -0.142227f, 0.055030f, -0.170059f, 0.081053f, 0.089096f, -0.136731f, -0.005811f, -0.210037f, 0.213462f, -0.055420f, -0.055112f, -0.017928f, -0.110320f, 0.179750f, -0.080558f, 0.117229f, -0.088461f, -0.140002f, -0.204648f, -0.127727f, 0.042937f, -0.176550f, -0.112152f, 0.062700f, 0.184058f, 0.056476f, 0.115778f, -0.110065f, 0.100952f, 0.060968f, 0.125441f, 0.058322f, -0.089827f, -0.064687f, 0.005386f, -0.016836f, 0.003224f, 0.045743f, 0.121267f, 0.015527f, 0.138109f, 0.107193f, -0.088124f, 0.034440f, -0.157692f, -0.048612f, 0.130152f, 0.146852f, -0.070041f, 0.028946f, 0.084295f, -0.030994f, -0.086750f, 0.001777f, -0.133945f, -0.047687f, 0.199387f, 0.166725f, -0.178726f, 0.079418f, -0.099897f, -0.157708f, 0.303022f, 0.191854f, -0.130723f, 0.183852f, 0.222642f, -0.104733f, -0.158277f, -0.142769f, 0.177702f, 0.044098f, 0.014378f, -0.031419f, -0.023339f, 0.070377f, 0.126936f, -0.083872f, 0.049373f, -0.050920f, -0.093116f, 0.260622f, 0.178711f, -0.051033f, 0.023643f, -0.065351f, -0.091447f, -0.024259f, 0.070750f, 0.155908f, -0.024007f, 0.033544f, 0.192920f, -0.155739f, 0.136578f, -0.050911f, -0.019151f, 0.196739f, -0.000537f, 0.006541f, 0.065914f, -0.160378f, 0.066083f, -0.044548f, -0.054718f, -0.211556f, -0.241314f, 0.036451f, 0.085576f, -0.116107f, 0.041732f, 0.046146f, 0.202871f, -0.084815f, -0.122253f, -0.117636f, 0.097280f, -0.149124f, -0.037910f, -0.008434f, -0.073251f, 0.185199f, 0.182726f, -0.003713f, -0.057462f, -0.149730f, -0.163415f, -0.051491f, 0.233612f, 0.166214f, 0.080062f, 0.001520f, -0.149731f, 0.008926f, 0.058132f, 0.196823f, -0.271045f, 0.002840f, -0.036293f, -0.184236f, -0.116926f, 0.103391f, 0.095641f, -0.084042f, -0.106341f, 0.034161f, -0.060243f, 0.146001f, 0.079142f, -0.170011f, -0.048790f, -0.148615f, 0.037228f, 0.123188f, 0.108592f, -0.130865f, -0.181623f, 0.016790f, -0.077893f, -0.106311f, -0.121562f, -0.238347f, 0.009783f, 0.152936f, -0.124318f, -0.000734f, 0.132199f, 0.000962f, 0.078725f, -0.066527f, 0.155029f, 0.075815f, -0.024963f, 0.030079f, -0.053303f, 0.046427f, 0.081703f, -0.043229f, 0.099971f, -0.117148f, -0.054992f, -0.213004f, -0.029359f, -0.101885f, 0.220143f, -0.171834f, -0.169180f, -0.131370f, -0.030544f, 0.088919f, -0.147686f, 0.027716f, 0.187404f, -0.156927f, 0.205046f, -0.081284f, -0.194695f, 0.063622f, 0.177871f, -0.116122f, 0.004869f, 0.148446f, 0.201097f, 0.058425f, -0.021260f, -0.133766f, -0.085209f, -0.147651f, -0.025430f, 0.074086f, -0.079505f, 0.182953f, -0.133096f, -0.049690f, 0.147309f, 0.123313f, 0.006352f, -0.196118f, 0.131757f, 0.133549f, -0.199342f, 0.128091f, -0.006784f, -0.117276f, -0.171486f, 0.190510f, 0.140464f, 0.203834f, -0.005998f, -0.118479f, 0.103224f, 0.038472f, 0.155033f, 0.097617f, 0.087694f, 0.120685f, -0.127191f, -0.091893f, -0.085773f, 0.131937f, 0.154968f, 0.244214f, 0.145142f, 0.003655f, 0.143295f, 0.029492f, -0.048785f, 0.087425f, 0.156956f, -0.178750f, 0.138746f, 0.201641f, 0.179508f, -0.020226f, -0.041068f, 0.234467f, -0.128641f, -0.145793f, 0.126678f, 0.195294f, -0.064174f, 0.078595f, -0.110708f, 0.104556f, -0.094154f, -0.169467f, 0.084610f, 0.063388f, 0.023793f, 0.062922f, 0.028450f, -0.194948f, 0.149743f, 0.115451f, 0.161904f, 0.077525f, -0.114608f, 0.106448f, 0.064682f, -0.029227f, 0.070486f, 0.156772f, 0.064447f, 0.030514f, 0.046721f, -0.033458f, 0.069022f, 0.187925f, -0.091747f, -0.250524f, 0.079263f, -0.171603f, 0.170536f, -0.186728f, -0.175917f, 0.076107f, 0.169523f, -0.072307f, -0.134751f, -0.105491f, 0.164269f, 0.003201f, -0.127995f, 0.173679f, 0.262181f, -0.169333f, -0.162163f, 0.021140f, 0.157297f, 0.189345f, 0.030005f, -0.144881f, -0.029321f, 0.148360f, 0.015257f, 0.090874f, 0.169963f, -0.165957f, -0.122043f, 0.106043f, -0.072050f, -0.050602f, 0.102442f, -0.105434f, 0.011181f, 0.067568f, -0.172055f, 0.046609f, -0.115636f, 0.111650f, 0.094891f, 0.073506f, -0.118441f, -0.137287f, 0.097269f, 0.194419f, 0.033132f, -0.176946f, 0.086510f, -0.136168f, 0.040805f, -0.146950f, -0.150956f, 0.018358f, 0.207576f, -0.227298f, -0.070373f, -0.156123f, 0.055282f, 0.184587f, 0.011755f, -0.126376f, -0.077400f, 0.160332f, 0.055992f, 0.122219f, -0.079033f, -0.080841f, -0.002725f, 0.036716f, 0.079755f, 0.043459f, -0.008319f, 0.128316f, -0.100962f, 0.116915f, -0.122417f, 0.183052f, 0.040665f, -0.129900f, 0.001780f, 0.104727f, 0.154972f, 0.093520f, 0.163331f, 0.091994f, 0.070877f, 0.099950f, 0.048916f, 0.192262f, -0.067998f, 0.075484f, 0.121985f, -0.031780f, -0.077366f, 0.032768f, -0.050094f, 0.118679f, 0.131421f, 0.238229f, 0.184480f, -0.114245f, 0.104441f, -0.081519f, -0.036736f, 0.018667f, 0.043757f, 0.066476f, -0.001428f, 0.028206f, -0.060972f, 0.067758f, -0.079444f, -0.215749f, 0.023342f, 0.042894f, 0.097390f, -0.198709f, 0.167810f, 0.110918f, -0.199283f, 0.049459f, -0.221702f, -0.143907f, 0.058201f, -0.070296f, -0.082346f, 0.034706f, -0.019937f, 0.072563f, -0.154778f, -0.084643f, -0.132602f, 0.106627f, -0.053376f, -0.031705f, -0.017554f, -0.063616f, 0.021074f, 0.099261f, -0.081081f, -0.004727f, -0.052081f, 0.045266f, -0.173393f, 0.017699f, -0.219822f, 0.039789f, 0.106888f, -0.056270f, 0.125306f, -0.022419f, 0.024425f, -0.176475f, 0.051844f, 0.004609f, 0.055039f, -0.226423f, 0.070627f, -0.046072f, -0.108130f, 0.143827f, -0.052397f, -0.071138f, 0.143196f, 0.042770f, -0.185059f, -0.152831f, 0.056051f, -0.041245f, -0.100963f, 0.080322f, -0.198922f, -0.142893f, 0.129742f, 0.286457f, -0.034369f, 0.156610f, 0.027013f, -0.154186f, 0.121656f, 0.182518f, -0.178034f, 0.139602f, -0.188786f, -0.120643f, -0.143719f, 0.224622f, -0.009431f, 0.201800f, 0.136904f, -0.103223f, 0.022750f, -0.003984f, -0.057689f, -0.097660f, 0.008118f, 0.189652f, 0.143417f, -0.156454f, -0.034859f, -0.064864f, -0.033611f, 0.015383f, -0.047849f, 0.133061f, 0.156941f, -0.012587f, -0.146048f, -0.209061f, -0.075507f, -0.043505f, -0.153725f, -0.037201f, -0.144003f, 0.163081f, -0.172335f, -0.144369f, -0.067351f, 0.042199f, 0.100172f, -0.063769f, 0.106260f, 0.035939f, 0.085755f, 0.155227f, -0.090367f, 0.117801f, -0.063480f, -0.145179f, -0.010502f, 0.192110f, 0.075941f, -0.050343f, -0.202500f, 0.127531f, 0.170350f, -0.117746f, 0.129746f, 0.064024f, 0.051426f, -0.119963f, -0.075619f, 0.196124f, 0.019156f, 0.109009f, 0.067948f, -0.019380f, -0.009317f, 0.029518f, 0.104500f, -0.080553f, 0.024401f, 0.052011f, 0.244936f, 0.024514f, 0.211478f, -0.084841f, 0.186938f, 0.094119f, 0.147050f, -0.200057f, 0.199078f, 0.224808f, 0.208907f, 0.014233f, 0.039770f, -0.200387f, -0.111719f, 0.168596f, 0.109160f, 0.063864f, -0.182353f, 0.219750f, -0.012797f, 0.045083f, -0.047978f, -0.184156f, -0.078328f, -0.152812f, 0.126422f, -0.005239f, 0.197028f, 0.180905f, 0.034013f, -0.203627f, -0.100422f, 0.024010f, -0.118711f, 0.015946f, -0.047450f, 0.178480f, 0.007642f, -0.094197f, -0.123639f, -0.186239f, -0.175860f, 0.104613f, 0.039014f, 0.097368f, -0.056643f, -0.023722f, 0.103326f, 0.014838f, 0.164404f, -0.183391f, 0.123707f, -0.194806f, 0.062794f, 0.063634f, 0.081931f, -0.039527f, -0.117977f, -0.041707f, -0.000986f, 0.173316f, 0.126990f, -0.083417f, 0.108679f, 0.058012f, 0.092101f, -0.039128f, 0.188671f, -0.022794f, -0.084155f, -0.047077f, -0.101374f, -0.098852f, -0.121818f, 0.039670f, -0.103781f, -0.129621f, -0.186312f, -0.098778f, -0.081231f, 0.022373f, -0.030964f, -0.011778f, 0.008401f, -0.072393f, 0.191683f, 0.214611f, 0.143247f, -0.199973f, 0.128044f, 0.165369f, 0.172397f, 0.034273f, -0.075895f, 0.098292f, -0.108677f, 0.154608f, -0.066216f, -0.099640f, 0.070973f, 0.107813f, 0.169853f, 0.192333f, 0.104046f, 0.108916f, 0.013311f, 0.065561f, 0.092542f, 0.209248f, -0.180314f, -0.164777f, 0.150341f, -0.072449f, 0.023189f, -0.206420f, 0.191019f, 0.190242f, 0.075689f, -0.080142f, -0.192435f, 0.031889f, -0.103829f, 0.112235f, -0.229401f, 0.166809f, -0.158316f, 0.064579f, 0.231803f, 0.168331f, 0.015584f, -0.038401f, 0.158945f, 0.039381f, -0.046269f, 0.075190f, 0.044115f, 0.083846f, 0.151044f, 0.147019f, -0.018697f, 0.116031f, 0.116877f, -0.169122f, 0.199682f, 0.187556f, 0.198689f, 0.167748f, 0.051572f, 0.132954f, 0.102129f, 0.158459f, -0.180868f, -0.104964f, 0.142842f, -0.026951f, -0.266481f, 0.084394f, 0.095464f, 0.101228f, 0.060021f, 0.013183f, -0.169858f, 0.101559f, 0.089641f, 0.147276f, 0.056216f, 0.034175f, -0.026661f, 0.218352f, 0.190714f, -0.080072f, -0.115353f, -0.063397f, 0.142290f, 0.122596f, -0.141830f, -0.130028f, 0.132154f, -0.088443f, -0.199947f, 0.132238f, -0.018425f, 0.112793f, -0.068067f, -0.143221f, -0.231116f, -0.059537f, -0.160938f, -0.161027f, -0.156161f, 0.053644f, -0.097876f, -0.045078f, -0.073757f, -0.017086f, 0.018147f, 0.090955f, -0.094040f, 0.117658f, 0.044976f, -0.089861f, 0.107176f, -0.134854f, -0.096448f, 0.097066f, -0.146573f, 0.041799f, -0.082768f, -0.142977f, 0.091721f, 0.073680f, -0.031827f, -0.102414f, 0.125009f, -0.055302f, 0.095263f, 0.048538f, -0.063589f, 0.059180f, -0.008170f, -0.098618f, -0.080731f, 0.079108f, 0.090671f, 0.055098f, 0.173991f, 0.009676f, -0.129762f, 0.072467f, 0.012806f, -0.067313f, -0.247699f, -0.165692f, 0.078459f, -0.024343f, 0.094188f, -0.069178f, -0.101432f, 0.087406f, -0.085256f, -0.035419f, -0.009771f, -0.186618f, -0.122979f, -0.037183f, -0.024391f, -0.031624f, -0.070681f, 0.024894f, -0.070703f, -0.009028f, 0.142658f, -0.050328f, -0.041546f, 0.145722f, 0.195754f, -0.087165f, 0.133256f, 0.125665f, 0.039034f, -0.037309f, 0.136300f, 0.208794f, 0.137161f, 0.050538f, 0.130620f, 0.155798f, -0.034155f, -0.012361f, -0.174430f, 0.166330f, 0.083757f, -0.077675f, -0.156014f, 0.037120f, -0.087264f, -0.174102f, -0.037328f, -0.106309f, 0.116540f, -0.206005f, 0.065073f, -0.122531f, 0.185535f, 0.052043f, -0.073263f, 0.042038f, -0.194676f, 0.166447f, -0.090410f, 0.095785f, 0.116485f, 0.013326f, -0.247099f, -0.059325f, 0.051180f, 0.212421f, -0.055696f, 0.118119f, -0.052693f, -0.094882f, -0.164463f, 0.173263f, -0.169933f, -0.087583f, 0.076888f, -0.005926f, -0.069871f, 0.217371f, 0.200188f, -0.187716f, 0.151418f, -0.016540f, 0.091280f, 0.162812f, -0.033254f, 0.234616f, 0.005834f, -0.077381f, -0.000511f, -0.026279f, 0.189739f, -0.028233f, -0.087231f, 0.197520f, -0.185820f, -0.206826f, 0.201483f, 0.107188f, -0.140891f, 0.016188f, 0.204714f, 0.108381f, 0.026592f, 0.101243f, -0.152250f, 0.149975f, -0.221935f, 0.085474f, 0.091180f, 0.120309f, 0.055429f, -0.025713f, -0.150196f, 0.028518f, 0.022761f, 0.090384f, -0.172736f, -0.188464f, -0.228359f, 0.135945f, -0.101060f, -0.057427f, -0.116896f, 0.113805f, -0.034088f, 0.069779f, 0.100381f, -0.100813f, -0.170368f, -0.004951f, -0.235512f, -0.056597f, 0.199572f, 0.056875f, -0.147996f, 0.087446f, 0.117498f, -0.128227f, -0.065968f, 0.120000f, 0.039096f, -0.065967f, -0.188349f, -0.063600f, -0.144308f, 0.123768f, 0.151377f, 0.022724f, -0.178584f, -0.042719f, -0.136004f, 0.110325f, 0.157821f, -0.115480f, -0.050938f, 0.072060f, 0.120871f, 0.115589f, 0.154369f, 0.133175f, 0.008430f, -0.072082f, 0.184813f, 0.166335f, -0.108787f, -0.212628f, 0.092957f, -0.011117f, 0.078353f, -0.134996f, -0.203039f, -0.121203f, 0.180372f, 0.169070f, 0.005673f, 0.140737f, 0.049236f, 0.032856f, -0.146565f, -0.109855f, 0.131016f, -0.093757f, 0.148917f, -0.029050f, 0.218959f, 0.020248f, 0.001853f, -0.067378f, -0.140280f, -0.109210f, -0.234205f, -0.177819f, 0.063014f, 0.066993f, -0.179516f, -0.044041f, -0.180315f, 0.109423f, -0.218724f, 0.119320f, 0.117358f, -0.076065f, 0.192889f, -0.156268f, 0.107761f, 0.079282f, -0.150399f, 0.055213f, 0.037351f, 0.060406f, 0.131969f, -0.087411f, -0.086272f, -0.153957f, -0.124453f, -0.167697f, -0.006734f, -0.105808f, -0.183262f, 0.136294f, -0.088256f, 0.001024f, 0.183449f, -0.091079f, -0.249889f, 0.270516f, 0.072905f, 0.129954f, 0.107877f, 0.119938f, -0.118859f, -0.097081f, 0.139344f, 0.189567f, 0.140984f, -0.029057f, -0.049002f, 0.151608f, 0.039203f, -0.125080f, -0.075299f, 0.053074f, 0.054086f, 0.216311f, 0.084770f, -0.149358f, -0.126792f, 0.115753f, 0.082386f, -0.182259f, -0.136176f, 0.129035f, -0.149221f };
const float biases_1[32] = { 0.007948f, 0.007889f, 0.028636f, -0.004888f, 0.037386f, -0.003108f, 0.001795f, -0.000161f, 0.002117f, 0.053502f, 0.017823f, 0.052770f, 0.032932f, 0.006604f, 0.014913f, 0.016021f, 0.021923f, 0.019517f, 0.007656f, -0.011084f, 0.001041f, 0.006358f, -0.002007f, 0.020020f, -0.000306f, 0.040682f, 0.009402f, 0.056953f, -0.012917f, -0.016019f, -0.000604f, -0.004406f };
const float weights_2[8192] = { 0.045531f, 0.025657f, -0.109606f, 0.110414f, -0.010677f, 0.099426f, 0.160807f, 0.068986f, -0.074547f, -0.019064f, -0.098821f, -0.040153f, 0.152922f, 0.016817f, 0.140265f, -0.075011f, -0.085053f, 0.068079f, -0.004226f, 0.085304f, -0.037356f, -0.173138f, 0.051599f, -0.073677f, 0.026465f, 0.051557f, 0.146247f, 0.006406f, 0.038529f, 0.030832f, -0.024725f, -0.068271f, -0.076789f, 0.130825f, 0.157227f, 0.039102f, 0.015222f, 0.143502f, 0.108732f, 0.055069f, 0.151491f, 0.055628f, 0.071216f, 0.101147f, -0.016970f, 0.082594f, 0.155162f, 0.076702f, -0.111268f, 0.097594f, 0.013259f, 0.097635f, -0.015551f, -0.118487f, -0.083660f, 0.136275f, -0.083509f, -0.051895f, -0.067949f, 0.017595f, 0.093802f, 0.048325f, 0.030771f, -0.018196f, -0.044880f, 0.160479f, 0.053564f, 0.091763f, 0.008721f, -0.029890f, -0.092624f, 0.101199f, 0.103682f, -0.052929f, -0.016253f, 0.090402f, -0.131204f, -0.097590f, 0.077554f, 0.123343f, -0.001645f, -0.059005f, 0.064307f, 0.020803f, -0.034692f, 0.064076f, -0.045117f, 0.047413f, -0.065783f, 0.123065f, 0.032899f, -0.099053f, 0.060618f, 0.077159f, -0.065194f, -0.123503f, -0.018081f, 0.112688f, -0.107098f, -0.016809f, -0.026053f, 0.150002f, 0.012081f, 0.122564f, 0.092145f, -0.054794f, -0.105439f, 0.073036f, -0.138179f, -0.064596f, 0.050785f, -0.059120f, -0.128874f, 0.021212f, -0.046806f, 0.014980f, -0.079046f, 0.156832f, 0.110584f, 0.020468f, 0.147199f, -0.117354f, -0.051463f, -0.094862f, 0.005941f, 0.101635f, 0.035137f, -0.100876f, -0.029846f, 0.189494f, 0.077393f, 0.159149f, 0.015973f, 0.065998f, -0.254650f, 0.048062f, 0.216210f, 0.174393f, 0.015091f, 0.028509f, -0.133144f, 0.026226f, -0.003305f, -0.057051f, -0.048701f, 0.083230f, -0.179465f, -0.131656f, -0.108587f, 0.223657f, 0.018624f, 0.066402f, 0.015075f, 0.053146f, -0.196015f, 0.091116f, 0.078036f, 0.225689f, -0.015205f, 0.004231f, -0.107528f, -0.188121f, -0.129290f, 0.008212f, 0.154477f, 0.098204f, -0.097589f, -0.013498f, -0.065351f, 0.025702f, -0.001727f, -0.040043f, 0.037279f, -0.105294f, -0.011057f, -0.065818f, 0.092904f, -0.035153f, -0.056689f, 0.157311f, 0.137385f, -0.050616f, -0.135984f, -0.016137f, -0.073665f, -0.006643f, 0.141805f, -0.093267f, -0.137307f, -0.020785f, 0.139915f, 0.024246f, 0.119297f, 0.063332f, -0.090725f, -0.131619f, 0.053939f, -0.153431f, -0.061736f, 0.057487f, 0.058141f, -0.113336f, -0.097907f, -0.113033f, -0.079024f, 0.105172f, -0.177596f, 0.070636f, -0.123226f, 0.030425f, -0.082243f, 0.020003f, 0.000891f, -0.005471f, 0.132665f, 0.032268f, -0.090848f, -0.163327f, 0.035298f, 0.021984f, -0.141467f, 0.097912f, -0.084808f, 0.092186f, -0.104033f, 0.064497f, -0.091978f, -0.063427f, -0.019730f, 0.060500f, 0.057645f, -0.104558f, 0.101529f, 0.034106f, -0.125224f, -0.036739f, -0.058016f, -0.005909f, 0.000479f, 0.073164f, 0.057994f, 0.109458f, -0.039700f, 0.110188f, -0.076230f, -0.019477f, -0.019525f, -0.033248f, 0.128502f, -0.029206f, 0.048512f, 0.014167f, -0.090932f, -0.081511f, -0.036208f, 0.016890f, 0.149764f, -0.062667f, -0.090366f, 0.068078f, 0.101080f, -0.098231f, -0.081580f, -0.059385f, -0.156396f, -0.114618f, 0.076476f, -0.115048f, -0.067984f, -0.093234f, 0.096683f, 0.147414f, 0.118346f, -0.057351f, -0.103877f, 0.058406f, -0.028662f, -0.022476f, 0.097319f, -0.098762f, 0.031591f, 0.096037f, 0.018735f, 0.028350f, 0.102515f, 0.105040f, -0.052846f, 0.134367f, 0.178259f, 0.138951f, 0.262076f, 0.154167f, -0.255198f, 0.129775f, -0.027658f, 0.165422f, 0.068084f, 0.197585f, -0.097335f, 0.177859f, -0.110799f, -0.093553f, 0.248924f, 0.026316f, 0.113240f, 0.129471f, 0.051161f, -0.115693f, -0.050812f, 0.117124f, -0.132979f, 0.080733f, 0.214160f, 0.036232f, -0.124873f, 0.073639f, 0.245205f, 0.102805f, -0.125657f, 0.054451f, 0.073373f, -0.117688f, -0.125503f, 0.080943f, -0.157277f, 0.022712f, -0.133424f, 0.058197f, -0.075008f, 0.145984f, 0.118876f, 0.040029f, -0.101149f, 0.117702f, -0.057429f, 0.090880f, -0.049963f, 0.073457f, -0.079290f, -0.014212f, -0.102993f, 0.173496f, 0.104679f, -0.026264f, 0.074014f, 0.016555f, 0.093489f, -0.078463f, 0.094177f, -0.039891f, 0.097704f, -0.102053f, 0.011192f, -0.084751f, -0.030573f, 0.085418f, -0.056314f, 0.133311f, -0.133022f, 0.061767f, -0.113872f, -0.120937f, 0.126315f, -0.032403f, -0.048325f, -0.120839f, 0.002558f, -0.025370f, 0.038451f, -0.107147f, -0.012708f, 0.047688f, 0.061806f, 0.133885f, -0.104476f, -0.050882f, 0.100832f, -0.002350f, -0.013632f, 0.092350f, -0.129073f, -0.016288f, -0.053368f, 0.101312f, -0.160222f, -0.142594f, -0.084015f, -0.215254f, 0.233728f, -0.233568f, -0.021404f, -0.013784f, -0.237820f, -0.175591f, 0.079421f, -0.204736f, 0.143235f, 0.037118f, -0.218475f, -0.117410f, -0.076336f, -0.028927f, 0.104119f, 0.262754f, 0.085673f, -0.072019f, 0.203871f, -0.256390f, -0.274333f, -0.210042f, -0.014670f, 0.182070f, -0.121509f, -0.009211f, 0.217647f, 0.002842f, -0.026343f, -0.038775f, -0.048704f, 0.006192f, 0.000918f, -0.034283f, 0.015111f, 0.094944f, -0.021080f, -0.134515f, -0.019026f, -0.009540f, -0.067363f, -0.013724f, -0.033050f, 0.100542f, -0.074650f, -0.077334f, 0.168537f, 0.213992f, 0.169913f, -0.077285f, 0.155968f, -0.052080f, 0.087242f, 0.041985f, 0.188538f, -0.093277f, -0.128669f, -0.097514f, 0.003111f, 0.114314f, 0.034195f, -0.092708f, 0.132771f, 0.161412f, -0.022052f, 0.151261f, 0.006215f, -0.021486f, -0.057307f, -0.082586f, -0.197763f, -0.005395f, 0.078370f, -0.032080f, 0.035106f, 0.051516f, 0.017652f, -0.082269f, -0.154831f, -0.084345f, -0.204477f, 0.109933f, -0.089250f, 0.094114f, 0.003696f, -0.101547f, -0.011118f, -0.130069f, 0.114103f, 0.037936f, -0.167156f, -0.041341f, 0.184913f, -0.102252f, 0.097628f, 0.129603f, 0.034705f, 0.122123f, -0.041599f, 0.037562f, 0.042355f, 0.061256f, -0.116317f, 0.098337f, 0.021317f, 0.082237f, 0.079204f, 0.010387f, -0.168615f, -0.102045f, -0.067957f, 0.008596f, -0.025523f, 0.151944f, -0.024570f, -0.041614f, 0.184780f, 0.138333f, -0.109147f, -0.008834f, 0.142693f, 0.006359f, -0.005855f, 0.005001f, 0.194777f, 0.153579f, 0.081299f, -0.058136f, 0.100796f, -0.046996f, 0.011691f, -0.020189f, -0.035030f, -0.102893f, -0.026872f, 0.006010f, 0.065764f, -0.057976f, -0.042675f, 0.015906f, 0.031196f, 0.141970f, -0.105692f, -0.075369f, -0.077085f, 0.142844f, -0.094885f, 0.084308f, -0.106670f, 0.006176f, -0.022346f, 0.023311f, 0.161669f, -0.024966f, -0.000140f, -0.114650f, 0.159053f, 0.126292f, 0.033103f, 0.177305f, -0.009816f, -0.031276f, -0.170071f, -0.050869f, -0.000261f, 0.151423f, -0.175621f, 0.138618f, -0.159448f, -0.089899f, -0.013937f, 0.164654f, -0.047568f, -0.102932f, -0.107601f, -0.119814f, 0.088065f, 0.107217f, -0.089302f, 0.035882f, 0.191110f, -0.022728f, 0.065317f, -0.031671f, -0.004914f, -0.009519f, -0.020222f, -0.111298f, 0.102032f, 0.043005f, 0.076469f, 0.137378f, 0.068478f, 0.127754f, 0.093554f, -0.089402f, -0.043199f, 0.126696f, -0.063581f, 0.103579f, -0.094808f, 0.040393f, 0.194368f, 0.057932f, -0.103212f, 0.027911f, -0.116875f, -0.080531f, 0.015042f, 0.084958f, 0.091031f, 0.120877f, 0.136412f, 0.035365f, 0.005875f, -0.058153f, 0.153944f, 0.091453f, 0.092874f, 0.106436f, -0.125485f, 0.127430f, 0.104575f, -0.082260f, -0.046038f, 0.025281f, -0.035361f, 0.061814f, 0.039976f, 0.076686f, -0.108462f, -0.001342f, 0.127806f, 0.053657f, -0.120789f, -0.110108f, -0.075528f, 0.121189f, 0.071250f, 0.112329f, -0.021248f, -0.001754f, 0.153943f, -0.062162f, 0.093188f, 0.059287f, 0.075468f, 0.123743f, -0.061499f, 0.048535f, -0.000280f, -0.028650f, 0.065484f, 0.119198f, 0.036189f, -0.085321f, 0.036389f, -0.094787f, 0.100487f, 0.030350f, -0.099967f, -0.016479f, 0.069164f, -0.030176f, -0.029639f, 0.000873f, 0.137046f, -0.159087f, -0.028049f, -0.024815f, -0.132539f, -0.084186f, -0.050875f, -0.023742f, 0.102709f, 0.133552f, -0.131556f, 0.135274f, 0.011895f, 0.067192f, -0.009713f, -0.095900f, 0.148119f, -0.002790f, -0.100221f, -0.114873f, 0.110644f, 0.070013f, -0.068735f, -0.142446f, -0.040981f, -0.099254f, 0.050618f, 0.087765f, 0.164391f, -0.081058f, -0.018133f, 0.028386f, -0.080848f, 0.039273f, 0.049197f, -0.138885f, -0.070641f, 0.133822f, 0.096248f, -0.105157f, -0.071233f, -0.052238f, -0.084703f, -0.129162f, 0.142427f, 0.026502f, 0.043361f, 0.094237f, 0.046800f, 0.108173f, -0.043750f, 0.008080f, -0.022457f, 0.065772f, -0.155800f, 0.168357f, -0.117245f, -0.031078f, 0.175300f, -0.024162f, -0.096640f, 0.092586f, -0.023165f, 0.091152f, 0.106781f, 0.050696f, -0.080301f, -0.116540f, -0.173615f, -0.100140f, -0.106583f, 0.081945f, -0.134110f, -0.000870f, 0.188372f, 0.031516f, 0.061542f, 0.071527f, 0.182053f, 0.141625f, -0.159215f, 0.021151f, 0.023403f, 0.046456f, -0.133993f, -0.085366f, 0.196930f, -0.038760f, 0.096553f, -0.046244f, -0.012072f, -0.062702f, 0.179362f, -0.120544f, -0.047916f, 0.096493f, 0.033215f, -0.116584f, -0.172737f, -0.116675f, 0.138411f, 0.116323f, -0.007594f, -0.002544f, 0.025262f, -0.016477f, 0.016374f, -0.164240f, 0.185346f, -0.031961f, -0.076019f, -0.157811f, 0.216295f, 0.040970f, -0.083071f, -0.119481f, 0.079163f, -0.004682f, 0.106642f, 0.011904f, -0.109253f, 0.079932f, -0.120902f, 0.111797f, 0.083450f, -0.068465f, -0.006631f, 0.087329f, 0.133799f, 0.021159f, 0.048552f, -0.065804f, 0.098536f, 0.110988f, -0.077459f, -0.097973f, -0.100382f, 0.057645f, -0.117620f, -0.148977f, 0.151828f, -0.095846f, -0.052134f, -0.033359f, 0.019155f, -0.109983f, 0.235041f, 0.273698f, 0.200924f, 0.267665f, -0.128184f, 0.088254f, -0.068964f, -0.005332f, 0.027972f, 0.165295f, -0.009298f, 0.106095f, -0.244386f, -0.155470f, 0.228740f, 0.089221f, -0.089865f, 0.236057f, -0.157660f, -0.194882f, -0.131056f, 0.114355f, -0.213110f, 0.076025f, 0.085611f, -0.052459f, -0.079771f, -0.186918f, 0.170333f, 0.213980f, -0.261486f, 0.156425f, 0.021740f, -0.061361f, -0.127643f, 0.102293f, -0.112932f, 0.073656f, -0.023189f, 0.093932f, 0.137394f, 0.106657f, -0.128175f, 0.133805f, -0.065747f, 0.096456f, -0.014030f, -0.040476f, -0.063247f, -0.092951f, -0.088146f, -0.006793f, -0.028773f, -0.104078f, 0.073246f, -0.041328f, 0.046228f, -0.085506f, 0.118447f, -0.076743f, 0.144413f, 0.075782f, 0.071531f, -0.126922f, 0.079096f, -0.066484f, 0.003387f, -0.096678f, -0.102272f, -0.090081f, -0.028396f, -0.154320f, 0.085778f, 0.127856f, 0.135129f, 0.029258f, -0.065337f, -0.005471f, -0.022885f, 0.121617f, 0.127992f, 0.016373f, 0.033874f, 0.121476f, 0.056164f, -0.198212f, 0.029502f, 0.141914f, 0.001185f, -0.041671f, -0.127613f, -0.083229f, 0.107727f, 0.082759f, -0.015416f, 0.067055f, 0.178333f, -0.019884f, 0.020500f, 0.023546f, 0.074409f, -0.069725f, -0.064164f, 0.025497f, 0.144845f, 0.094400f, -0.026460f, -0.026555f, 0.017796f, 0.003079f, -0.072401f, 0.004718f, -0.059723f, -0.142022f, 0.038494f, -0.062976f, -0.029327f, 0.068965f, -0.103788f, -0.067969f, 0.062083f, 0.041243f, -0.108850f, -0.097651f, 0.102712f, 0.070088f, -0.048777f, -0.138552f, -0.134725f, 0.055049f, -0.032071f, 0.083119f, 0.064780f, -0.059589f, -0.011139f, 0.089463f, 0.085254f, 0.124703f, 0.144028f, -0.070556f, 0.097022f, -0.034443f, 0.168756f, -0.015998f, -0.127127f, -0.006482f, 0.008103f, -0.034430f, -0.077229f, -0.037129f, -0.129190f, -0.072873f, 0.083014f, 0.028551f, 0.144984f, 0.038691f, -0.132000f, -0.118190f, 0.068630f, 0.050606f, -0.076686f, -0.110929f, -0.108826f, 0.057451f, -0.023904f, -0.093554f, 0.026471f, -0.107727f, -0.168370f, -0.027770f, 0.095486f, -0.006484f, 0.158030f, -0.081885f, -0.022995f, -0.028028f, 0.044277f, 0.107132f, -0.025072f, -0.017986f, 0.158301f, 0.047766f, 0.150300f, -0.188482f, -0.047081f, -0.017320f, 0.038856f, 0.027030f, -0.013959f, 0.010096f, 0.001624f, 0.005250f, -0.101544f, -0.130814f, 0.107876f, 0.015150f, -0.018351f, -0.057687f, -0.050640f, 0.062887f, 0.071034f, -0.107091f, 0.074340f, -0.096704f, -0.019631f, -0.099513f, -0.042896f, 0.072804f, -0.021802f, 0.016876f, -0.069393f, 0.116451f, -0.018034f, -0.089909f, 0.033278f, -0.135816f, 0.143284f, 0.014224f, -0.107885f, 0.013687f, 0.121711f, 0.074652f, 0.031998f, 0.136048f, -0.113935f, -0.052417f, 0.022993f, -0.077880f, -0.035565f, 0.104021f, 0.011753f, -0.134357f, 0.076122f, 0.056932f, 0.036089f, -0.029462f, -0.031246f, -0.100687f, -0.109534f, -0.119999f, 0.114521f, 0.124179f, 0.065482f, -0.006321f, 0.047086f, -0.107362f, 0.006427f, -0.070828f, -0.085413f, -0.036179f, -0.002230f, -0.076215f, -0.169517f, -0.077131f, 0.181806f, 0.029374f, 0.172851f, 0.118345f, 0.094726f, -0.030244f, 0.078142f, -0.074172f, -0.099024f, -0.082059f, -0.064062f, 0.103363f, -0.138278f, -0.054961f, -0.081213f, 0.014301f, 0.071389f, 0.141796f, 0.079620f, -0.111671f, -0.111380f, 0.092869f, 0.077738f, 0.072364f, 0.103107f, 0.028947f, 0.144725f, 0.112170f, -0.121159f, 0.106171f, 0.142831f, -0.048610f, 0.088850f, -0.092630f, -0.048908f, 0.038540f, 0.040082f, 0.066798f, 0.069118f, 0.063105f, -0.049696f, 0.113879f, 0.099361f, -0.082833f, 0.036111f, -0.097333f, -0.083402f, 0.098341f, -0.096524f, 0.155685f, -0.030910f, -0.163611f, -0.026410f, 0.095947f, -0.113831f, -0.029864f, -0.021275f, 0.002984f, -0.116976f, -0.145673f, -0.118501f, 0.030523f, -0.022551f, -0.096594f, 0.128739f, 0.143337f, -0.072089f, 0.002749f, 0.104408f, -0.026876f, -0.043389f, -0.000825f, -0.121499f, 0.037007f, 0.025147f, -0.103950f, -0.050113f, -0.102522f, -0.141827f, -0.113540f, 0.051178f, -0.013107f, 0.027268f, 0.119221f, 0.001794f, -0.004866f, 0.124031f, -0.112897f, -0.090366f, 0.015964f, -0.032984f, 0.086007f, 0.082177f, -0.141294f, 0.079493f, 0.059507f, 0.127190f, -0.134847f, 0.023556f, 0.178720f, 0.008662f, 0.021668f, 0.018362f, 0.227995f, -0.079203f, 0.044658f, 0.074963f, 0.030952f, -0.013549f, -0.003906f, 0.039690f, 0.021262f, 0.187418f, -0.130483f, -0.039044f, 0.035211f, -0.138881f, -0.158422f, -0.070820f, 0.065271f, 0.000731f, 0.153863f, 0.196918f, 0.040691f, -0.151248f, -0.155205f, 0.003879f, -0.034851f, 0.005625f, 0.192343f, 0.091944f, -0.061805f, -0.172172f, -0.140482f, 0.138839f, 0.103431f, 0.167805f, -0.008772f, 0.017687f, -0.092347f, -0.080065f, 0.078940f, 0.079377f, -0.082791f, 0.147986f, 0.092172f, 0.130967f, -0.120483f, 0.159397f, -0.037437f, -0.035366f, -0.005662f, -0.031451f, -0.003035f, 0.094375f, -0.155498f, 0.093112f, 0.143873f, -0.185861f, -0.066165f, -0.063780f, -0.018761f, 0.077849f, -0.000861f, 0.001509f, -0.142579f, 0.124379f, -0.040328f, 0.168405f, -0.146311f, -0.132707f, -0.116798f, 0.061808f, 0.014054f, 0.132075f, -0.103065f, -0.009683f, -0.101121f, 0.038893f, -0.106980f, -0.080425f, 0.033459f, 0.049241f, 0.091577f, 0.077718f, -0.064192f, 0.049821f, -0.122252f, 0.080159f, -0.082534f, 0.088522f, -0.016128f, -0.047499f, -0.043060f, 0.054937f, -0.016675f, -0.000929f, -0.124444f, 0.132267f, 0.024482f, 0.091061f, 0.057215f, -0.115340f, -0.061021f, 0.092819f, 0.018838f, -0.009142f, 0.159243f, 0.039877f, -0.108624f, -0.036896f, 0.117574f, -0.042437f, -0.065317f, -0.040334f, -0.067364f, -0.008145f, 0.090785f, -0.058205f, 0.069009f, 0.069718f, 0.127259f, 0.062808f, -0.017650f, -0.041992f, -0.069682f, 0.065111f, 0.120777f, 0.123816f, 0.144155f, -0.080731f, 0.087402f, 0.009903f, -0.112712f, 0.050486f, -0.002432f, -0.154007f, 0.110408f, -0.082871f, 0.056258f, 0.058728f, -0.011495f, 0.134809f, -0.014904f, 0.078258f, -0.131716f, 0.120956f, 0.146719f, -0.108574f, -0.024950f, 0.138921f, -0.074538f, -0.104812f, 0.094752f, 0.024612f, 0.002173f, 0.077589f, -0.091935f, -0.152620f, 0.021023f, -0.073887f, 0.003879f, -0.038286f, 0.032963f, 0.013846f, 0.024400f, 0.109763f, 0.031322f, -0.029059f, 0.169199f, 0.126148f, -0.082691f, -0.046968f, -0.036796f, 0.057140f, -0.088307f, -0.025421f, 0.082104f, -0.060186f, -0.006854f, 0.073713f, -0.076086f, 0.082700f, -0.082386f, -0.064295f, -0.062004f, 0.111681f, -0.003553f, 0.099417f, 0.077672f, 0.073092f, 0.119082f, -0.120128f, 0.145635f, 0.092325f, -0.054750f, -0.080354f, 0.098325f, 0.121405f, 0.139308f, -0.114927f, 0.074328f, 0.087879f, -0.085779f, -0.124580f, -0.037620f, -0.036171f, -0.011037f, -0.098372f, -0.104763f, -0.025650f, 0.094444f, -0.133655f, 0.087319f, 0.166856f, -0.018185f, -0.078414f, -0.056779f, 0.152086f, 0.133540f, 0.053264f, 0.158588f, -0.036575f, -0.012499f, 0.028646f, -0.033152f, -0.057059f, 0.026078f, 0.166059f, -0.149275f, -0.204092f, -0.162413f, 0.142421f, 0.089290f, 0.049792f, 0.200632f, -0.137137f, -0.064344f, 0.009720f, -0.103550f, 0.098407f, 0.213167f, 0.113849f, 0.086952f, 0.034491f, -0.001663f, -0.183950f, 0.037132f, 0.139700f, 0.056278f, -0.002353f, -0.042559f, 0.067289f, -0.124327f, 0.067776f, 0.121558f, 0.041465f, -0.145190f, 0.144668f, 0.054692f, -0.085394f, -0.073295f, 0.016463f, -0.057720f, -0.000238f, 0.087034f, 0.018275f, -0.074981f, 0.087763f, 0.021542f, -0.107393f, -0.050994f, -0.002359f, 0.035987f, 0.129383f, -0.153558f, 0.136705f, -0.032697f, -0.071481f, -0.044542f, -0.011214f, -0.081611f, 0.092544f, 0.020934f, 0.089383f, -0.072204f, 0.013281f, 0.123418f, -0.075642f, -0.041756f, -0.116979f, 0.055814f, -0.148509f, 0.066363f, 0.153978f, -0.029034f, 0.072418f, 0.066604f, -0.049503f, -0.088294f, -0.070163f, 0.072043f, 0.023706f, 0.053452f, 0.013113f, 0.052708f, 0.086655f, 0.019262f, -0.097651f, -0.048712f, -0.040743f, 0.068887f, 0.133766f, 0.043893f, 0.162663f, 0.026694f, 0.049072f, -0.063846f, -0.118959f, 0.039938f, -0.136964f, 0.040822f, 0.046405f, 0.025090f, 0.092108f, -0.046972f, 0.094420f, -0.144654f, 0.049668f, -0.121207f, 0.027537f, -0.049476f, -0.051275f, -0.126212f, 0.086254f, -0.121239f, 0.135364f, -0.089628f, 0.135961f, 0.015122f, 0.036878f, -0.138058f, -0.014293f, -0.092576f, 0.031286f, 0.069135f, -0.137362f, -0.001436f, -0.067213f, 0.115398f, -0.037206f, -0.104375f, -0.175008f, 0.076236f, -0.012695f, -0.166627f, -0.087413f, 0.014004f, -0.099555f, -0.103887f, -0.022827f, 0.088275f, 0.178386f, -0.051918f, -0.004058f, 0.118049f, 0.027524f, -0.019451f, 0.140517f, 0.112651f, -0.050434f, 0.111374f, -0.008480f, -0.021671f, -0.009168f, -0.072075f, 0.103391f, 0.058908f, -0.034567f, -0.043962f, 0.021002f, 0.108202f, 0.011079f, 0.028519f, -0.050942f, 0.065265f, -0.005099f, -0.092592f, 0.207064f, -0.106155f, 0.042846f, -0.161456f, -0.050438f, 0.094493f, 0.146783f, 0.050674f, 0.092792f, -0.141121f, -0.102480f, 0.014467f, 0.151590f, 0.034676f, 0.187694f, -0.009321f, -0.087384f, -0.001262f, 0.062229f, -0.158488f, 0.068726f, -0.128985f, -0.179432f, 0.060997f, 0.066179f, -0.058558f, -0.052781f, -0.019932f, 0.023396f, -0.035902f, -0.011358f, 0.043128f, 0.012829f, 0.093522f, 0.079109f, -0.016361f, 0.121491f, 0.107036f, 0.070743f, 0.036815f, -0.014447f, -0.047910f, 0.061527f, -0.020611f, -0.108539f, -0.077932f, -0.045887f, -0.140990f, 0.048804f, 0.016688f, -0.155096f, -0.181205f, 0.094551f, -0.047263f, -0.086900f, -0.027654f, 0.006489f, -0.123423f, 0.050510f, -0.103986f, 0.090916f, -0.104155f, -0.054689f, -0.111388f, -0.058600f, -0.038317f, 0.050331f, -0.044670f, 0.154155f, -0.001662f, -0.040844f, 0.003161f, -0.151017f, -0.021832f, -0.021807f, 0.031539f, 0.101914f, 0.002477f, -0.113983f, 0.036543f, -0.107668f, 0.089779f, 0.105074f, -0.151246f, -0.032839f, 0.034351f, -0.022111f, -0.036148f, -0.026314f, -0.019775f, 0.006039f, 0.016413f, 0.067320f, 0.051459f, 0.110136f, -0.043586f, -0.000962f, -0.118687f, 0.048852f, 0.097010f, -0.063766f, -0.115911f, 0.109350f, 0.072531f, 0.052622f, 0.118721f, 0.006653f, 0.042577f, 0.144732f, -0.004390f, 0.108969f, -0.145469f, 0.063689f, -0.118270f, 0.021499f, -0.105826f, 0.130373f, -0.058782f, 0.121182f, -0.140853f, 0.084619f, -0.032380f, -0.131066f, -0.099095f, 0.097741f, -0.048486f, -0.069757f, -0.045971f, 0.051534f, -0.011290f, -0.071276f, 0.051094f, -0.022122f, -0.052015f, 0.005196f, 0.151315f, -0.110950f, 0.113959f, 0.073372f, 0.061289f, 0.012353f, 0.028064f, 0.038696f, 0.093274f, 0.096626f, 0.096250f, -0.125343f, 0.114827f, -0.101340f, 0.020078f, -0.027277f, 0.016773f, 0.110482f, -0.023878f, -0.056678f, 0.043940f, -0.108955f, -0.154920f, -0.098615f, -0.040883f, -0.025320f, 0.014296f, -0.067755f, 0.045859f, -0.082775f, -0.074384f, -0.087264f, -0.040904f, -0.142436f, -0.060255f, -0.051983f, -0.067183f, 0.010199f, -0.065869f, -0.022719f, 0.011088f, -0.069923f, -0.004638f, 0.064450f, 0.008278f, 0.100054f, 0.030410f, -0.069154f, 0.097277f, 0.104280f, 0.039503f, -0.034337f, 0.002376f, -0.047243f, -0.041209f, 0.127005f, 0.065513f, -0.086577f, -0.034092f, 0.020544f, 0.075641f, 0.174293f, -0.112130f, 0.152243f, 0.152360f, -0.068866f, 0.045253f, 0.126776f, -0.058911f, -0.068218f, 0.143959f, -0.009003f, 0.089975f, 0.077950f, -0.025899f, -0.056206f, 0.028007f, -0.042596f, 0.150696f, -0.090685f, 0.005422f, 0.141800f, -0.035718f, -0.165496f, 0.079551f, 0.033899f, -0.037247f, 0.075201f, -0.134238f, -0.045323f, -0.034039f, 0.096508f, -0.106521f, 0.012890f, -0.150889f, 0.157643f, -0.061228f, 0.027138f, -0.090806f, 0.129819f, -0.101577f, 0.139662f, -0.093040f, -0.073895f, -0.079278f, 0.024496f, -0.080604f, 0.086677f, -0.057847f, 0.056654f, -0.006386f, -0.105632f, 0.099596f, 0.078105f, -0.029949f, 0.146512f, 0.085904f, 0.097186f, 0.014037f, -0.164169f, 0.080841f, -0.170718f, 0.060910f, 0.224943f, 0.151393f, 0.036138f, -0.015413f, 0.007001f, -0.081945f, 0.142463f, 0.070563f, 0.083183f, -0.005357f, -0.124343f, -0.125137f, -0.087291f, 0.180005f, 0.075576f, 0.162958f, 0.100910f, 0.166988f, -0.158247f, -0.076291f, -0.054557f, 0.193088f, 0.048489f, 0.068680f, -0.063644f, 0.083778f, -0.012851f, 0.110065f, -0.129901f, 0.012348f, -0.055616f, -0.041687f, -0.038760f, 0.082598f, -0.027624f, 0.157238f, -0.168853f, -0.068045f, 0.124680f, -0.023636f, 0.064753f, -0.099773f, -0.027540f, 0.059650f, -0.051305f, 0.112898f, -0.092436f, 0.186637f, -0.007484f, 0.019676f, -0.040128f, -0.151510f, -0.036570f, 0.118443f, -0.062389f, 0.135964f, -0.049970f, 0.111803f, 0.104217f, 0.088924f, 0.057267f, -0.110039f, 0.145311f, 0.124010f, -0.024332f, -0.078259f, -0.105874f, -0.000827f, 0.050014f, 0.146430f, 0.039571f, -0.090904f, 0.045654f, -0.093412f, -0.023294f, -0.028125f, 0.056575f, -0.031880f, 0.135382f, 0.048902f, -0.104886f, -0.073935f, -0.021353f, -0.143892f, 0.104877f, 0.085128f, -0.018290f, -0.107811f, -0.141425f, -0.033915f, -0.205576f, -0.174916f, -0.003818f, -0.060594f, 0.085375f, -0.031522f, -0.008164f, -0.172463f, 0.132054f, -0.101704f, 0.213874f, -0.010316f, -0.005595f, 0.036813f, -0.171313f, 0.086183f, 0.000484f, 0.004586f, -0.013696f, -0.077821f, -0.033680f, -0.172321f, -0.161169f, -0.036043f, 0.202422f, 0.165191f, -0.120798f, 0.053351f, -0.043741f, -0.061904f, 0.041640f, -0.088986f, 0.129052f, 0.032220f, 0.091123f, 0.096874f, 0.078857f, 0.168339f, 0.120043f, 0.060583f, 0.047841f, -0.041129f, 0.016691f, 0.019034f, 0.083810f, 0.125370f, 0.072756f, 0.137959f, 0.075321f, -0.011402f, -0.120831f, -0.046736f, 0.030808f, 0.066510f, -0.103206f, 0.142238f, 0.059095f, -0.048119f, 0.031222f, 0.053532f, 0.110513f, -0.062499f, -0.112831f, -0.069875f, -0.013609f, -0.095313f, 0.090621f, 0.053236f, 0.166407f, 0.107874f, -0.097961f, 0.007882f, 0.128527f, -0.076824f, 0.107297f, 0.136506f, -0.095342f, -0.106884f, 0.035171f, -0.051639f, 0.148648f, -0.060272f, 0.081006f, -0.103020f, 0.115638f, 0.117551f, -0.128341f, 0.124964f, 0.146865f, -0.000671f, -0.128670f, 0.053389f, -0.043747f, -0.029363f, -0.039295f, -0.066572f, 0.021700f, -0.024999f, 0.086925f, -0.021706f, 0.132168f, 0.104195f, -0.089043f, 0.039545f, -0.097285f, -0.055415f, -0.101959f, -0.038169f, -0.019900f, 0.035903f, 0.137176f, -0.125711f, -0.112075f, -0.007998f, -0.046063f, 0.106964f, 0.012278f, -0.088542f, -0.058273f, -0.050456f, -0.097075f, -0.037024f, 0.138529f, -0.057162f, -0.058619f, -0.110865f, 0.113077f, 0.001442f, -0.006457f, -0.093313f, 0.002406f, 0.083384f, 0.121001f, 0.077794f, -0.002491f, -0.126977f, -0.086392f, 0.019004f, 0.138981f, 0.134724f, -0.048957f, 0.048162f, 0.029242f, 0.023231f, 0.026180f, 0.022113f, 0.109028f, 0.007648f, -0.011975f, -0.122472f, 0.059809f, 0.024726f, -0.089672f, -0.068711f, -0.106227f, -0.082477f, -0.083212f, -0.083939f, -0.063631f, 0.124892f, 0.061006f, -0.084682f, 0.015376f, -0.002174f, -0.007193f, -0.133037f, -0.072775f, 0.027962f, 0.064381f, -0.069535f, 0.015265f, 0.076542f, -0.010944f, 0.058519f, -0.063636f, -0.094842f, -0.089516f, 0.130915f, -0.070369f, 0.025532f, -0.055346f, 0.080446f, 0.042426f, 0.053918f, -0.099559f, 0.035120f, -0.086146f, -0.107685f, -0.020486f, 0.103964f, 0.138062f, 0.093981f, -0.119870f, 0.079479f, -0.135035f, -0.087944f, 0.049802f, 0.069832f, 0.092945f, 0.010036f, -0.098604f, -0.025558f, -0.013870f, 0.115029f, 0.132560f, -0.018572f, 0.060170f, 0.165035f, -0.132394f, 0.000091f, -0.088003f, 0.001799f, 0.115185f, 0.025734f, 0.125820f, 0.071150f, 0.104415f, -0.129757f, 0.071405f, -0.009937f, 0.101156f, -0.025164f, 0.132417f, 0.129497f, 0.095769f, 0.105768f, -0.029463f, 0.013943f, -0.094077f, -0.062252f, 0.131133f, -0.117494f, -0.017318f, 0.155265f, 0.025111f, 0.052252f, -0.073175f, -0.064713f, 0.165718f, 0.078870f, 0.106697f, -0.011990f, 0.073697f, -0.146720f, -0.084842f, 0.015065f, 0.149637f, 0.140547f, -0.095347f, 0.042236f, 0.133192f, -0.045714f, 0.006240f, 0.098787f, 0.116896f, -0.107793f, 0.052986f, 0.138964f, 0.135615f, 0.062666f, 0.013646f, -0.090300f, -0.082344f, -0.093014f, 0.083610f, 0.086845f, -0.081194f, -0.085542f, -0.026706f, 0.134034f, 0.164819f, 0.075582f, -0.115476f, 0.089263f, -0.068926f, 0.012437f, 0.055600f, 0.103697f, -0.121928f, 0.159879f, -0.080180f, -0.053173f, -0.004978f, -0.087664f, 0.084684f, 0.061701f, -0.090044f, -0.011012f, 0.130928f, 0.116513f, -0.077575f, 0.076229f, -0.142795f, -0.154124f, 0.044773f, -0.002795f, 0.042753f, 0.088114f, -0.175278f, -0.051230f, 0.093032f, -0.062557f, 0.087457f, 0.043112f, -0.060206f, 0.102482f, 0.027338f, 0.091294f, -0.100873f, -0.009583f, -0.115536f, 0.125213f, -0.152744f, 0.143607f, -0.038816f, 0.096193f, 0.031330f, 0.075221f, -0.035997f, 0.056818f, -0.121614f, -0.002877f, -0.085875f, 0.168189f, -0.139859f, 0.040095f, 0.129901f, 0.067408f, -0.106590f, 0.099621f, -0.131418f, 0.096226f, -0.069840f, -0.040817f, 0.044630f, -0.042874f, 0.027948f, -0.119382f, 0.047028f, 0.022071f, -0.040344f, 0.054026f, 0.041423f, -0.093378f, -0.035041f, 0.051573f, -0.099833f, 0.088310f, 0.073437f, 0.029314f, -0.141962f, -0.076864f, 0.114925f, -0.080460f, -0.000169f, 0.072766f, 0.056031f, -0.083378f, 0.052174f, 0.005457f, 0.070305f, -0.077187f, -0.021543f, 0.032262f, -0.061436f, -0.120733f, -0.091665f, -0.011129f, 0.013363f, 0.158674f, 0.059250f, -0.011143f, -0.081212f, -0.041065f, 0.112895f, 0.067609f, 0.075794f, 0.126489f, -0.099211f, -0.066939f, -0.111721f, -0.021513f, 0.098168f, -0.092017f, 0.118412f, -0.141844f, 0.050144f, -0.140822f, -0.040152f, -0.130835f, -0.143607f, -0.087782f, 0.110387f, -0.022313f, 0.095091f, 0.136746f, 0.035732f, -0.109365f, -0.048047f, 0.015962f, 0.099107f, -0.040256f, 0.106304f, -0.101910f, 0.084213f, -0.034314f, 0.021142f, -0.040202f, -0.035461f, -0.025873f, 0.101435f, -0.070591f, -0.048815f, 0.098188f, 0.012883f, 0.026715f, -0.097356f, 0.033689f, -0.049458f, 0.160181f, -0.076000f, -0.063535f, 0.152963f, 0.074042f, -0.083108f, 0.191755f, -0.126546f, -0.102932f, -0.084068f, -0.006321f, -0.074474f, 0.092858f, 0.141747f, -0.061154f, 0.069058f, -0.049681f, -0.104122f, 0.045834f, -0.049937f, -0.023419f, -0.080565f, 0.139492f, -0.054081f, 0.039698f, -0.090671f, 0.065844f, 0.097941f, 0.065818f, -0.074330f, 0.052581f, -0.055340f, 0.146258f, -0.073377f, -0.010927f, 0.018114f, 0.148870f, -0.111788f, 0.147178f, -0.086667f, -0.046169f, 0.134932f, -0.090633f, 0.024624f, 0.060233f, 0.075044f, -0.144249f, 0.064578f, 0.143726f, -0.007535f, 0.065121f, 0.075490f, 0.129320f, -0.115104f, -0.006287f, -0.092753f, 0.030591f, -0.106771f, 0.060986f, -0.042345f, 0.131037f, -0.091402f, 0.074186f, 0.016254f, -0.073209f, 0.114905f, 0.012326f, -0.137377f, 0.037414f, -0.066479f, -0.083405f, -0.049709f, -0.133408f, 0.091304f, -0.092676f, 0.014110f, -0.014218f, 0.090399f, 0.067699f, 0.100398f, -0.046612f, -0.132042f, -0.068741f, 0.028661f, 0.054857f, 0.079599f, 0.155634f, -0.091305f, -0.114780f, 0.094384f, -0.052209f, -0.115135f, 0.080636f, 0.055573f, -0.037044f, 0.023804f, 0.060497f, 0.108376f, 0.035177f, 0.023534f, 0.093470f, -0.019530f, -0.021682f, -0.043279f, -0.039170f, -0.084452f, 0.124847f, 0.078071f, 0.000222f, 0.152497f, 0.164195f, -0.058662f, 0.019345f, 0.127014f, 0.124334f, 0.119430f, -0.132447f, 0.113038f, 0.049362f, -0.140744f, -0.010903f, 0.068746f, 0.106862f, 0.041092f, -0.181605f, 0.114533f, 0.104196f, -0.025656f, -0.101203f, 0.059281f, -0.109869f, 0.108548f, -0.023273f, 0.021221f, 0.049163f, -0.009086f, -0.072824f, 0.015632f, 0.006623f, -0.017579f, -0.077650f, 0.166807f, 0.051575f, 0.072216f, -0.126570f, -0.087707f, 0.010934f, -0.021383f, -0.168536f, 0.053305f, 0.093282f, -0.111073f, 0.115714f, -0.036354f, -0.093360f, 0.033875f, 0.059476f, -0.093220f, 0.112164f, 0.141982f, 0.121662f, 0.103878f, 0.022517f, 0.101307f, -0.057736f, -0.054471f, 0.101109f, 0.104306f, 0.113863f, -0.026368f, -0.016359f, 0.077341f, -0.102212f, -0.073278f, 0.095191f, 0.143212f, -0.094544f, 0.038828f, -0.043614f, -0.019393f, -0.101686f, -0.085948f, 0.094318f, -0.011148f, 0.092624f, -0.038079f, -0.056103f, 0.074260f, 0.059024f, 0.086607f, 0.103752f, -0.142808f, 0.118417f, -0.086665f, -0.123332f, 0.145673f, 0.115809f, 0.070397f, -0.049690f, -0.075463f, -0.101153f, -0.047788f, 0.024935f, 0.025166f, -0.046856f, -0.039278f, 0.027937f, -0.033053f, 0.006629f, -0.029984f, 0.080917f, 0.175541f, -0.079584f, -0.086636f, -0.104972f, 0.114790f, 0.153694f, -0.093606f, 0.070976f, -0.078543f, -0.157637f, 0.066288f, -0.125502f, 0.186595f, -0.159540f, 0.156481f, 0.117546f, -0.179877f, -0.011640f, 0.018037f, -0.156539f, 0.140460f, -0.091377f, 0.005122f, -0.131760f, -0.068133f, -0.135661f, 0.019081f, 0.047268f, 0.142437f, 0.049014f, 0.067430f, -0.105469f, -0.043473f, -0.035303f, -0.045750f, -0.105085f, -0.150580f, 0.001614f, -0.044904f, 0.052434f, 0.009418f, 0.051402f, 0.097811f, -0.047518f, -0.000032f, -0.088266f, -0.117822f, 0.101471f, -0.036611f, 0.013036f, -0.086041f, 0.017586f, 0.093687f, 0.039081f, 0.113632f, 0.115740f, 0.086175f, 0.007112f, 0.056314f, -0.035524f, 0.063238f, 0.130132f, -0.060260f, 0.064559f, 0.117274f, 0.078477f, 0.048606f, -0.068474f, -0.132934f, -0.057512f, -0.054475f, 0.059434f, -0.072869f, 0.113666f, 0.082602f, -0.074206f, 0.057472f, -0.101692f, -0.074793f, 0.082040f, -0.117884f, -0.070686f, -0.082592f, -0.092783f, -0.094645f, -0.130073f, -0.100386f, -0.021805f, 0.041402f, -0.013130f, 0.067530f, 0.073348f, 0.108682f, 0.043092f, 0.008500f, 0.048255f, -0.048418f, 0.057183f, -0.091169f, 0.120959f, -0.065117f, -0.032780f, -0.075418f, 0.094007f, 0.051545f, -0.039720f, -0.032792f, -0.041817f, 0.018425f, 0.018092f, 0.159429f, -0.097422f, 0.065898f, 0.021885f, 0.094461f, -0.119585f, 0.033294f, -0.142806f, 0.122144f, 0.027719f, -0.144228f, 0.104431f, -0.029553f, 0.109363f, 0.124605f, -0.126819f, -0.104275f, 0.108196f, -0.074575f, -0.062461f, 0.014964f, -0.017572f, 0.039989f, -0.101900f, 0.022943f, -0.097931f, -0.129813f, -0.111103f, 0.032214f, -0.040559f, -0.114455f, -0.133775f, 0.035372f, -0.085873f, 0.074858f, 0.087088f, 0.065027f, 0.016417f, 0.087160f, 0.014730f, 0.041409f, 0.152739f, -0.026087f, 0.096187f, -0.059719f, -0.082164f, 0.055710f, -0.118594f, 0.030770f, -0.037462f, 0.029566f, -0.055434f, 0.089801f, 0.168365f, 0.033494f, -0.098866f, 0.150787f, 0.021804f, 0.024529f, -0.027172f, -0.071725f, -0.048076f, -0.124453f, 0.067341f, 0.061110f, -0.141960f, -0.072653f, -0.130262f, 0.087594f, -0.107748f, 0.094516f, -0.077440f, -0.080051f, -0.068794f, -0.033649f, 0.024206f, 0.005207f, 0.001890f, -0.013690f, -0.172686f, -0.010024f, -0.021106f, 0.042784f, -0.087408f, -0.025877f, 0.092788f, -0.055963f, -0.042781f, 0.147697f, 0.083415f, -0.074406f, -0.118647f, -0.012862f, -0.102704f, 0.163454f, -0.111197f, -0.095154f, -0.065582f, 0.084169f, -0.050006f, 0.033511f, 0.028365f, 0.138682f, -0.005349f, -0.026887f, 0.090041f, -0.146889f, -0.156792f, -0.015950f, 0.166931f, -0.009435f, -0.103264f, -0.039150f, 0.083753f, -0.101734f, 0.095035f, -0.086751f, 0.047976f, 0.036744f, -0.124004f, -0.054829f, -0.052904f, -0.145224f, -0.005615f, -0.050009f, -0.016456f, -0.065806f, 0.062156f, 0.153885f, 0.025645f, -0.021603f, -0.140366f, -0.047040f, 0.115192f, 0.028625f, 0.049633f, -0.086934f, -0.029807f, -0.085223f, 0.022417f, -0.064081f, -0.078895f, -0.088746f, 0.104014f, 0.149108f, -0.025318f, -0.092831f, -0.056632f, 0.026441f, 0.007122f, -0.009219f, -0.064529f, -0.031987f, 0.131421f, -0.150959f, -0.018300f, -0.050435f, -0.074981f, 0.104873f, -0.124502f, 0.135213f, 0.070278f, -0.003138f, 0.081527f, -0.010111f, 0.054121f, 0.060898f, -0.047523f, -0.091100f, -0.053139f, 0.031798f, 0.116692f, -0.083458f, -0.064708f, 0.039104f, -0.143201f, -0.088522f, -0.171238f, -0.144917f, 0.111843f, -0.067751f, 0.111397f, 0.009448f, 0.037665f, 0.075295f, -0.142309f, 0.125193f, 0.137589f, 0.062052f, -0.108333f, -0.149185f, -0.063260f, -0.075500f, -0.028765f, 0.158657f, 0.002608f, 0.032550f, 0.085219f, -0.254842f, -0.048458f, 0.021900f, -0.102122f, 0.136677f, -0.030347f, -0.142981f, 0.014421f, 0.086095f, 0.149139f, -0.144591f, 0.011173f, -0.112865f, 0.027699f, -0.084663f, 0.032995f, 0.065127f, -0.106231f, -0.060667f, -0.107086f, -0.054031f, -0.068782f, -0.156090f, -0.013621f, 0.151914f, 0.000902f, 0.169816f, -0.006711f, 0.116643f, 0.045874f, 0.159703f, -0.085562f, -0.012384f, 0.040999f, 0.056795f, 0.058716f, -0.068777f, -0.077109f, 0.163587f, 0.106944f, -0.061795f, -0.022185f, -0.059814f, 0.053111f, 0.018106f, 0.044399f, 0.048279f, -0.124727f, 0.120820f, -0.016002f, -0.092522f, -0.044193f, -0.129083f, 0.122197f, -0.154385f, -0.005937f, -0.065554f, -0.090107f, 0.097911f, 0.107635f, -0.162013f, -0.013287f, 0.035193f, 0.006801f, 0.139611f, 0.005113f, -0.005079f, 0.001210f, -0.041477f, -0.104328f, 0.119315f, 0.063225f, -0.043521f, 0.059487f, -0.023632f, -0.100899f, 0.014802f, 0.017581f, 0.111755f, -0.026640f, 0.066351f, -0.168072f, -0.030917f, -0.000410f, 0.116441f, -0.028654f, -0.106574f, 0.096406f, -0.026054f, -0.027553f, 0.028178f, -0.095780f, 0.001995f, -0.037183f, 0.012758f, 0.107154f, -0.033986f, -0.092911f, -0.007251f, 0.137432f, -0.054268f, -0.132242f, 0.158801f, 0.168539f, 0.014448f, 0.003351f, 0.085386f, 0.087659f, -0.085847f, -0.203615f, -0.010419f, 0.017825f, 0.105335f, -0.041700f, -0.111699f, 0.024408f, 0.066095f, 0.058541f, -0.077829f, -0.046194f, -0.015060f, -0.119397f, 0.046019f, -0.100170f, -0.025351f, -0.028131f, 0.049637f, -0.068108f, -0.089630f, 0.012502f, 0.098180f, -0.007626f, -0.008497f, 0.053162f, 0.096681f, -0.127314f, 0.066814f, 0.019137f, -0.094351f, 0.144377f, 0.054712f, 0.023978f, -0.073728f, -0.042319f, 0.141641f, 0.020283f, 0.009945f, -0.047580f, -0.072523f, -0.107910f, 0.085550f, 0.138983f, 0.120975f, 0.028981f, -0.007960f, 0.118223f, -0.018724f, -0.058092f, -0.059003f, 0.025861f, -0.080169f, 0.056072f, -0.019572f, -0.078316f, -0.075257f, -0.031754f, -0.056379f, -0.019029f, -0.107809f, 0.049592f, 0.021833f, 0.029034f, 0.021744f, -0.006924f, 0.114546f, 0.038392f, -0.030070f, 0.077662f, -0.112834f, -0.013127f, 0.083284f, 0.062385f, 0.002775f, 0.105819f, 0.097048f, 0.058068f, 0.115256f, 0.076457f, 0.102344f, 0.013121f, -0.075975f, -0.131465f, -0.045745f, 0.135254f, 0.065999f, 0.125698f, -0.102794f, -0.150967f, -0.106226f, 0.019625f, -0.007413f, -0.025457f, -0.113150f, 0.005533f, -0.033341f, 0.000624f, 0.082338f, -0.085596f, 0.012699f, -0.047386f, 0.142120f, 0.062991f, -0.123810f, 0.042994f, -0.008593f, 0.068051f, 0.118372f, 0.042003f, -0.053874f, 0.056071f, -0.110482f, -0.108214f, -0.110041f, -0.121835f, 0.086836f, 0.002682f, -0.057318f, -0.097355f, 0.041658f, 0.111942f, 0.103328f, 0.143940f, -0.025318f, -0.126044f, 0.030736f, -0.070938f, -0.078738f, -0.048020f, 0.008092f, 0.045819f, -0.063844f, 0.019391f, -0.055405f, -0.094767f, -0.090976f, 0.132543f, 0.159642f, -0.091754f, 0.009038f, -0.052425f, -0.077456f, 0.159880f, 0.152627f, -0.062281f, -0.069495f, 0.117898f, -0.030445f, -0.119576f, 0.252086f, 0.103526f, 0.143557f, 0.159405f, -0.132692f, 0.044660f, -0.174399f, -0.013516f, 0.061119f, -0.090836f, 0.134829f, 0.098350f, -0.172744f, -0.004660f, -0.073589f, 0.007651f, 0.063687f, -0.122131f, 0.053474f, -0.027817f, -0.108330f, 0.123896f, 0.137125f, -0.001691f, 0.130874f, 0.136214f, 0.110162f, 0.049997f, 0.093600f, 0.107729f, -0.016330f, -0.147639f, -0.022848f, 0.091180f, 0.022315f, -0.114628f, -0.008353f, -0.028756f, 0.035929f, -0.111632f, 0.017263f, -0.123893f, -0.083664f, 0.090769f, -0.018526f, 0.104200f, 0.111567f, 0.131866f, -0.107824f, 0.028122f, -0.058281f, 0.125941f, 0.089366f, 0.134562f, 0.035369f, -0.073004f, 0.002349f, 0.145360f, -0.075801f, 0.038577f, -0.062707f, -0.076390f, 0.137625f, -0.033287f, 0.048521f, -0.071602f, -0.162647f, 0.027471f, 0.022279f, -0.082235f, 0.139261f, -0.083942f, -0.027253f, 0.049542f, -0.014054f, -0.054946f, -0.124030f, 0.155616f, 0.097787f, -0.038892f, -0.108914f, 0.035158f, -0.043566f, -0.114531f, 0.022550f, -0.134974f, 0.142581f, -0.094830f, 0.168093f, -0.161925f, 0.098251f, -0.022735f, 0.034169f, 0.012711f, 0.044153f, -0.021173f, -0.143905f, -0.114258f, -0.078154f, 0.042556f, -0.111328f, 0.000165f, 0.060131f, 0.104854f, 0.121512f, -0.024636f, -0.087049f, -0.026569f, 0.138886f, -0.015386f, 0.111839f, -0.021308f, -0.028839f, -0.035493f, -0.005193f, 0.023128f, -0.182556f, -0.167132f, 0.212485f, -0.096497f, -0.054362f, -0.036970f, -0.017113f, 0.011748f, 0.156399f, -0.029239f, 0.082082f, 0.184732f, 0.165156f, -0.108210f, -0.112762f, 0.119781f, -0.010925f, -0.047288f, 0.118779f, 0.060057f, 0.192334f, 0.011183f, -0.079419f, -0.027989f, -0.023368f, -0.084363f, -0.187343f, -0.014909f, 0.012264f, 0.149054f, -0.089822f, -0.103497f, -0.116652f, 0.028789f, 0.140882f, 0.085462f, 0.133566f, -0.014072f, -0.070057f, -0.083186f, 0.005196f, -0.060791f, 0.000904f, 0.045830f, -0.104452f, -0.096458f, -0.102152f, 0.107548f, 0.099805f, -0.106289f, -0.067074f, 0.086633f, 0.083784f, -0.029278f, 0.044965f, -0.008767f, -0.024024f, -0.000794f, 0.001410f, -0.148770f, -0.066877f, 0.001611f, 0.102673f, -0.001135f, -0.018167f, -0.007926f, 0.055123f, -0.051452f, -0.078757f, -0.033426f, -0.074324f, 0.088527f, 0.085251f, -0.027534f, 0.064786f, 0.027091f, -0.172592f, 0.124420f, 0.082735f, 0.074621f, -0.110944f, 0.015916f, 0.138218f, 0.095203f, 0.133800f, 0.072722f, -0.013217f, 0.006378f, -0.130423f, -0.006159f, 0.099798f, -0.017588f, 0.089543f, -0.143839f, -0.031828f, 0.090350f, -0.162381f, -0.176784f, 0.170325f, 0.053175f, 0.139743f, 0.063121f, -0.168201f, -0.150696f, 0.070584f, -0.057676f, 0.034610f, -0.035692f, -0.109676f, -0.133796f, 0.098854f, -0.124949f, 0.044408f, -0.020041f, 0.007201f, -0.021466f, 0.067657f, -0.170116f, -0.010662f, -0.024789f, -0.004304f, -0.035363f, -0.128696f, -0.106265f, 0.005110f, 0.094578f, -0.021302f, 0.015647f, 0.098787f, 0.120937f, -0.127719f, -0.018025f, 0.132486f, 0.097261f, -0.029267f, 0.009675f, -0.033778f, -0.141579f, -0.137269f, -0.056987f, 0.150202f, 0.068622f, 0.078503f, -0.108423f, 0.109902f, -0.126630f, 0.050132f, 0.087872f, -0.043824f, -0.120690f, 0.103340f, -0.049683f, 0.012785f, 0.100887f, 0.124000f, -0.063530f, 0.145710f, -0.067420f, 0.078594f, 0.001521f, -0.118451f, -0.127706f, 0.074345f, 0.019606f, -0.039678f, -0.199919f, -0.186391f, -0.182171f, -0.051887f, 0.020895f, 0.041961f, 0.200399f, -0.001341f, 0.011828f, -0.088821f, -0.047213f, 0.128866f, 0.131252f, 0.205125f, 0.007743f, 0.213688f, -0.000824f, 0.011074f, 0.097335f, -0.032635f, -0.045573f, 0.064162f, -0.099882f, -0.013698f, -0.168770f, 0.064243f, 0.052390f, -0.094528f, -0.101547f, 0.048708f, 0.025348f, 0.138142f, -0.069985f, -0.104963f, 0.110290f, -0.135293f, 0.103930f, -0.077179f, -0.069367f, -0.056069f, -0.031239f, -0.050670f, -0.026085f, -0.080884f, -0.111791f, -0.012080f, 0.119315f, -0.095064f, 0.011185f, 0.033641f, -0.071134f, -0.016666f, -0.165507f, 0.005216f, -0.068051f, 0.068489f, -0.026327f, 0.084827f, -0.091476f, 0.099459f, 0.134008f, -0.125226f, 0.119995f, -0.014477f, 0.096380f, -0.033669f, -0.047796f, 0.078020f, 0.143807f, 0.044823f, -0.143819f, -0.043856f, 0.093509f, 0.107207f, 0.069148f, -0.111777f, -0.045487f, 0.002461f, 0.019076f, -0.133270f, 0.047755f, -0.043992f, -0.134671f, 0.092699f, -0.035725f, 0.051664f, 0.076795f, 0.071108f, -0.105785f, -0.073873f, 0.003323f, -0.083512f, -0.059628f, -0.089362f, -0.110271f, 0.171199f, -0.034741f, 0.063852f, -0.100191f, 0.056794f, -0.097436f, -0.064915f, -0.096234f, -0.050264f, -0.085941f, -0.172135f, -0.017366f, -0.120708f, -0.053797f, 0.143041f, 0.013955f, 0.109411f, 0.033866f, -0.032189f, -0.106001f, -0.080681f, 0.134036f, 0.101239f, -0.117687f, -0.018580f, 0.051536f, 0.196273f, -0.120900f, 0.147093f, 0.131586f, 0.082638f, -0.101381f, -0.097525f, -0.067260f, -0.006187f, 0.038693f, -0.076326f, 0.113012f, -0.024050f, -0.144317f, -0.089084f, -0.025330f, 0.131753f, 0.043214f, 0.078200f, -0.102096f, 0.067468f, 0.073684f, -0.084036f, -0.038433f, -0.053383f, 0.062908f, 0.067953f, -0.015505f, -0.040257f, -0.095747f, 0.088804f, -0.015419f, -0.050383f, -0.024597f, 0.013907f, 0.065883f, 0.091516f, -0.043466f, 0.029481f, 0.158207f, -0.142696f, 0.075041f, 0.065742f, 0.007089f, -0.002342f, -0.118883f, 0.142745f, -0.052630f, 0.041598f, 0.074086f, -0.039414f, 0.006064f, -0.020177f, 0.033618f, -0.075160f, -0.125631f, -0.076916f, 0.017316f, -0.042519f, 0.078423f, -0.035754f, -0.075379f, 0.165185f, -0.069132f, 0.074969f, 0.019332f, -0.137783f, -0.099118f, 0.066116f, -0.198144f, 0.184250f, 0.095424f, 0.046064f, -0.080953f, 0.023989f, -0.181712f, 0.023250f, 0.000269f, 0.014231f, 0.021493f, 0.130726f, -0.081939f, 0.071965f, 0.041266f, 0.124804f, -0.104099f, 0.121851f, 0.049529f, -0.109386f, 0.017927f, 0.054297f, -0.039313f, -0.071438f, -0.118601f, 0.147389f, -0.065190f, -0.126520f, -0.015702f, 0.135539f, 0.007493f, 0.032596f, -0.081763f, 0.032760f, 0.099297f, 0.019143f, -0.023309f, -0.004760f, -0.027871f, -0.068408f, 0.095425f, -0.027187f, 0.047924f, -0.003364f, -0.008064f, 0.074497f, 0.148667f, -0.003048f, 0.007981f, 0.022797f, -0.010132f, 0.026119f, 0.020809f, -0.023409f, 0.018904f, 0.127515f, -0.060023f, -0.055202f, -0.108876f, 0.039915f, 0.121936f, 0.086874f, -0.060474f, 0.026241f, -0.048890f, -0.051872f, -0.065634f, -0.098859f, 0.099814f, 0.017310f, -0.112869f, 0.019274f, 0.029973f, -0.124819f, -0.128921f, 0.036897f, 0.099838f, -0.076739f, 0.075963f, -0.055974f, 0.025976f, -0.055806f, -0.025478f, -0.071475f, -0.082032f, -0.144879f, 0.034173f, 0.048392f, -0.003428f, 0.002601f, 0.139841f, -0.122495f, -0.133385f, 0.012133f, 0.039574f, 0.114592f, 0.018330f, -0.073649f, -0.037687f, -0.021284f, 0.053392f, -0.096050f, 0.005542f, 0.108377f, 0.003477f, 0.049325f, -0.059539f, -0.105711f, 0.012992f, -0.050469f, 0.099096f, 0.174318f, 0.093047f, -0.034082f, 0.094960f, -0.053413f, 0.080110f, -0.021762f, 0.038986f, 0.006867f, 0.002101f, -0.057762f, -0.145243f, 0.001585f, -0.123226f, 0.017960f, 0.014496f, 0.098136f, -0.046201f, 0.012075f, -0.136397f, 0.044419f, -0.132355f, 0.140022f, 0.029435f, -0.045073f, -0.030205f, 0.054520f, -0.015405f, 0.071466f, -0.029999f, -0.043920f, 0.094429f, -0.000895f, -0.043511f, -0.044820f, -0.129922f, 0.054554f, -0.079498f, -0.081959f, -0.093974f, -0.018730f, -0.043121f, 0.015448f, 0.036440f, -0.033441f, 0.059496f, -0.088745f, -0.057648f, -0.121047f, -0.025210f, 0.148780f, -0.028697f, -0.066006f, 0.060946f, 0.019955f, -0.027281f, -0.005887f, 0.133001f, 0.067035f, -0.091690f, -0.083806f, 0.114274f, 0.116488f, -0.072206f, -0.051052f, 0.036780f, -0.103536f, 0.087392f, 0.036036f, 0.030921f, -0.097565f, 0.126538f, 0.023241f, -0.109200f, 0.065329f, -0.025344f, -0.136194f, 0.086773f, -0.070035f, 0.022274f, 0.098609f, -0.061021f, -0.011750f, 0.015312f, 0.139658f, -0.045528f, -0.085220f, 0.073406f, -0.109098f, 0.061843f, 0.096933f, 0.044418f, 0.030072f, -0.134796f, 0.091027f, -0.155073f, -0.111180f, 0.142494f, -0.079352f, -0.109592f, 0.097417f, -0.135378f, -0.047019f, 0.113239f, -0.030794f, -0.012567f, 0.060901f, 0.107104f, -0.078894f, -0.039909f, 0.094207f, 0.055040f, -0.015566f, 0.039352f, 0.103426f, -0.087295f, 0.021515f, 0.015303f, -0.058285f, 0.086868f, 0.090285f, 0.000054f, 0.180381f, -0.034242f, 0.053252f, 0.140507f, -0.122357f, -0.039964f, 0.038062f, -0.089735f, -0.062321f, 0.017460f, -0.031955f, 0.036481f, 0.138776f, 0.048851f, 0.000553f, -0.073605f, -0.137512f, 0.014244f, 0.066859f, 0.059238f, 0.053637f, 0.108514f, 0.093756f, -0.086427f, -0.016975f, -0.051181f, -0.075446f, 0.007248f, -0.021685f, 0.066294f, -0.140516f, -0.075057f, 0.069044f, 0.036424f, -0.077627f, 0.005339f, 0.055080f, 0.029122f, 0.109663f, -0.054116f, 0.123160f, 0.059733f, 0.015246f, -0.067813f, -0.064223f, -0.116581f, 0.076269f, 0.035476f, 0.013702f, -0.050522f, 0.060045f, 0.137751f, 0.067566f, 0.107579f, -0.077463f, 0.094804f, -0.129894f, -0.002873f, -0.109051f, 0.010465f, -0.106980f, -0.115449f, -0.087729f, -0.114570f, -0.162269f, 0.083096f, 0.121201f, 0.004918f, -0.029449f, 0.085701f, 0.003630f, -0.009249f, -0.094437f, -0.130602f, 0.062052f, -0.057971f, -0.003657f, -0.062456f, 0.004511f, 0.009111f, 0.027439f, 0.089003f, -0.075648f, 0.101700f, 0.065670f, 0.148505f, 0.086168f, -0.020499f, 0.076455f, 0.040844f, 0.106480f, -0.014603f, 0.041925f, 0.062642f, 0.019586f, -0.118585f, 0.201883f, -0.045019f, 0.036832f, 0.024645f, 0.016138f, 0.019895f, 0.076597f, -0.044298f, -0.018735f, 0.169789f, 0.134532f, -0.074438f, -0.083251f, 0.001051f, 0.089766f, -0.160730f, -0.012909f, -0.081800f, 0.064722f, 0.093859f, 0.049266f, 0.001978f, -0.059458f, 0.044362f, -0.030524f, 0.071010f, 0.004180f, -0.021438f, 0.064697f, -0.105451f, -0.097733f, -0.138518f, -0.020537f, 0.072069f, 0.124634f, 0.084901f, -0.018668f, 0.084134f, -0.028062f, 0.030562f, 0.062273f, -0.117525f, 0.075269f, 0.024695f, -0.064406f, -0.006973f, -0.124187f, 0.078487f, 0.033744f, 0.011595f, 0.078466f, -0.069639f, 0.092402f, -0.028479f, 0.025026f, -0.004069f, -0.103557f, -0.067302f, 0.015406f, -0.001325f, -0.026240f, -0.060329f, -0.142559f, 0.023247f, 0.013252f, 0.108622f, -0.111421f, -0.067749f, -0.048665f, -0.141438f, -0.138179f, -0.029240f, -0.024566f, 0.070823f, 0.121261f, 0.061846f, -0.153909f, 0.067678f, -0.040600f, 0.147818f, -0.062751f, -0.077518f, 0.077257f, 0.124067f, 0.130180f, 0.032521f, -0.153400f, 0.021082f, 0.076533f, -0.050893f, 0.090980f, 0.156197f, 0.069992f, -0.098699f, -0.134712f, -0.099534f, 0.210966f, -0.058506f, 0.172216f, 0.002967f, 0.095328f, -0.024250f, 0.069853f, 0.006217f, -0.125096f, 0.147763f, 0.067104f, -0.017552f, 0.044843f, 0.073087f, 0.053944f, 0.044770f, -0.052678f, -0.138043f, 0.132083f, -0.068238f, -0.058100f, 0.061662f, 0.036674f, 0.132360f, -0.113343f, 0.102341f, 0.051785f, 0.048301f, -0.052114f, -0.125176f, 0.082528f, 0.072990f, -0.048043f, 0.009068f, -0.034735f, -0.017448f, 0.094974f, -0.007799f, -0.110546f, 0.008921f, 0.071114f, -0.119269f, 0.125007f, 0.084458f, 0.074245f, 0.083728f, 0.105711f, 0.019008f, -0.061590f, 0.122568f, 0.049240f, 0.026128f, 0.100838f, 0.055551f, -0.081440f, -0.102129f, -0.160630f, -0.098760f, -0.107403f, 0.073770f, -0.130667f, -0.072769f, -0.105959f, 0.099607f, 0.024148f, 0.142786f, -0.053691f, -0.143985f, -0.136219f, -0.101997f, 0.065398f, 0.099892f, -0.007505f, 0.001688f, 0.004358f, 0.036162f, -0.035496f, 0.019387f, -0.025413f, 0.133723f, -0.005301f, -0.014455f, -0.020460f, -0.149864f, 0.028736f, -0.098828f, 0.147686f, -0.028455f, -0.009822f, -0.087177f, 0.066717f, -0.050643f, 0.133503f, -0.115794f, 0.110388f, -0.016302f, 0.092874f, -0.058461f, -0.093412f, 0.041185f, 0.172369f, 0.159132f, -0.052149f, -0.090262f, 0.088125f, 0.006785f, -0.187744f, 0.035964f, -0.106996f, 0.119818f, -0.109939f, -0.096104f, -0.043563f, -0.052927f, -0.175493f, -0.133179f, -0.164142f, -0.200664f, 0.125519f, -0.075451f, 0.041655f, -0.054886f, -0.065218f, 0.009809f, 0.140069f, -0.125990f, -0.024837f, 0.199385f, 0.061930f, -0.086977f, -0.082638f, -0.019347f, 0.185123f, 0.162374f, 0.099554f, -0.057732f, -0.031496f, -0.205997f, -0.117989f, 0.117352f, -0.001394f, 0.008315f, -0.212294f, -0.130891f, 0.055657f, 0.127715f, -0.132666f, -0.101069f, -0.142547f, -0.116634f, 0.027848f, 0.024495f, -0.080523f, -0.125841f, 0.018381f, 0.051800f, -0.069476f, 0.096452f, -0.084964f, 0.062557f, 0.009014f, -0.129608f, 0.079400f, -0.027873f, 0.004579f, -0.053643f, 0.095130f, -0.115458f, 0.130720f, -0.015002f, -0.033513f, -0.118157f, 0.019671f, -0.055052f, -0.050083f, 0.096086f, 0.089200f, -0.055249f, 0.072229f, 0.033534f, 0.118097f, 0.206088f, -0.147876f, 0.122520f, -0.159204f, -0.018472f, 0.214479f, 0.160374f, -0.089221f, -0.021916f, 0.015551f, -0.111076f, 0.018225f, 0.000292f, -0.050905f, 0.150869f, -0.026513f, -0.206555f, 0.037442f, 0.122664f, -0.107552f, 0.067557f, 0.132593f, 0.036125f, -0.110284f, -0.003688f, 0.008507f, 0.173668f, -0.057846f, -0.000701f, -0.141859f, -0.105286f, -0.144974f, -0.000022f, 0.056291f, -0.019422f, 0.199609f, -0.113024f, -0.097258f, -0.139776f, 0.168639f, -0.096947f, 0.107193f, 0.167887f, -0.020466f, -0.101482f, -0.134249f, 0.075011f, 0.123808f, -0.072826f, 0.002058f, 0.014319f, 0.036195f, -0.195717f, -0.170380f, -0.163857f, 0.072267f, 0.042208f, 0.063616f, -0.182194f, 0.205947f, 0.015178f, -0.171880f, -0.197198f, -0.185170f, 0.006907f, 0.049125f, -0.164173f, 0.192642f, -0.155364f, -0.221335f, -0.106873f, 0.117253f, -0.040007f, 0.016429f, 0.228274f, -0.113393f, 0.018508f, 0.013559f, 0.053362f, -0.065782f, 0.092164f, 0.139642f, -0.112171f, 0.050343f, -0.078442f, -0.052038f, 0.077923f, 0.137666f, 0.161525f, -0.077511f, -0.209906f, 0.000302f, -0.000738f, -0.069074f, -0.198046f, 0.045801f, -0.138641f, 0.057453f, -0.104465f, -0.037812f, -0.027446f, -0.114395f, -0.129370f, 0.061861f, 0.021225f, -0.029931f, 0.144463f, 0.051064f, -0.074547f, -0.064018f, 0.001158f, 0.051143f, 0.130058f, -0.037465f, -0.015602f, 0.087716f, 0.048950f, 0.082656f, -0.002115f, 0.087986f, 0.026897f, -0.173251f, -0.166752f, -0.009187f, -0.093574f, -0.134097f, -0.019680f, 0.110580f, 0.007487f, -0.127296f, -0.045642f, 0.111112f, 0.090779f, 0.097393f, -0.016864f, -0.099948f, 0.045254f, -0.025156f, 0.002216f, -0.107876f, -0.104547f, 0.023115f, -0.021430f, -0.033160f, 0.099072f, 0.059319f, -0.003350f, 0.089799f, 0.163749f, -0.032022f, -0.113889f, -0.050581f, 0.010856f, 0.079781f, -0.040383f, 0.053143f, 0.033040f, -0.042305f, -0.039404f, -0.160533f, -0.118872f, -0.104094f, -0.057606f, 0.020394f, -0.081174f, -0.006265f, -0.185529f, 0.041684f, 0.039983f, 0.162346f, 0.053238f, -0.135267f, 0.049359f, -0.031680f, -0.110200f, 0.189554f, -0.030517f, 0.003321f, -0.016686f, -0.078413f, 0.023178f, -0.165177f, -0.044725f, 0.131240f, -0.050031f, -0.062617f, 0.085787f, 0.124663f, -0.130904f, 0.103414f, 0.029017f, -0.024946f, 0.103653f, -0.040628f, 0.057971f, -0.122022f, 0.165532f, 0.133886f, 0.179335f, -0.181524f, 0.026432f, 0.052234f, 0.043356f, -0.052848f, -0.012507f, 0.042075f, -0.049667f, -0.080921f, -0.054072f, -0.177411f, 0.119133f, 0.101477f, -0.078903f, 0.030934f, 0.055750f, 0.060563f, 0.023624f, 0.080505f, 0.135843f, -0.089606f, 0.029690f, -0.021763f, -0.121399f, 0.048554f, 0.034132f, -0.045576f, 0.021595f, 0.109910f, -0.035139f, -0.100049f, -0.149977f, 0.048713f, -0.102962f, 0.085303f, -0.061231f, 0.051653f, -0.081345f, -0.145730f, -0.057526f, -0.087779f, 0.176351f, 0.157424f, -0.140212f, -0.022888f, -0.104513f, 0.114642f, 0.020201f, 0.100879f, 0.042609f, -0.087717f, -0.061824f, 0.062270f, 0.115630f, 0.051033f, -0.003129f, -0.061758f, 0.022374f, 0.077056f, -0.028472f, 0.025696f, -0.123343f, -0.162063f, 0.070750f, 0.153419f, 0.094324f, 0.154965f, 0.030024f, -0.019877f, -0.015926f, -0.034848f, -0.033431f, 0.037265f, -0.038365f, 0.091207f, 0.012196f, 0.140618f, -0.130399f, -0.020389f, 0.112847f, 0.136184f, 0.054004f, -0.044274f, 0.080899f, -0.080772f, -0.207419f, -0.146600f, -0.078347f, -0.094174f, -0.074158f, -0.074880f, 0.100278f, -0.079652f, -0.040518f, 0.049035f, -0.062232f, -0.070310f, -0.099284f, 0.088426f, -0.030750f, 0.109745f, -0.088244f, 0.129429f, 0.043699f, 0.148568f, 0.144152f, 0.091845f, 0.008000f, -0.041648f, 0.057999f, -0.112130f, -0.114095f, -0.014059f, -0.011949f, 0.034774f, -0.065548f, 0.089192f, 0.022536f, 0.026344f, -0.009690f, 0.068277f, -0.095082f, 0.144471f, -0.195716f, 0.058308f, -0.187837f, -0.038100f, -0.087723f, -0.031583f, 0.072025f, 0.028300f, 0.173840f, -0.095412f, 0.001200f, -0.103114f, -0.080351f, 0.187349f, 0.180197f, 0.057959f, -0.003670f, -0.048129f, -0.030101f, -0.153163f, -0.097408f, 0.178437f, -0.004233f, -0.157107f, -0.027577f, -0.040253f, 0.105090f, -0.005173f, 0.040681f, -0.058224f, 0.064355f, -0.019648f, 0.107027f, 0.075042f, -0.092080f, 0.049345f, -0.091105f, 0.019236f, -0.023681f, 0.042228f, -0.147216f, 0.069272f, 0.083466f, -0.069238f, 0.004300f, 0.045860f, 0.042190f, 0.005795f, 0.029410f, -0.153770f, 0.034231f, 0.132086f, -0.054881f, 0.079717f, -0.097486f, -0.040087f, 0.154800f, 0.087603f, -0.136960f, -0.127551f, 0.062269f, -0.163881f, -0.102796f, 0.210394f, -0.112426f, 0.200271f, -0.008900f, -0.081445f, -0.180933f, 0.121727f, -0.163151f, 0.178538f, 0.168909f, -0.017666f, -0.244304f, -0.178305f, -0.130886f, 0.164179f, 0.073162f, 0.101116f, -0.074656f, 0.005502f, -0.178161f, -0.233857f, -0.032339f, 0.070029f, 0.199933f, -0.191990f, -0.190527f, 0.065554f, -0.008131f, -0.049382f, 0.023173f, -0.016033f, -0.041984f, 0.062789f, -0.012836f, -0.066657f, -0.116593f, -0.128530f, 0.139585f, -0.033260f, -0.140192f, -0.024256f, -0.125591f, -0.048004f, 0.075647f, 0.070930f, -0.096783f, 0.047843f, 0.031514f, -0.105967f, 0.100847f, 0.013996f, 0.041259f, 0.034082f, 0.089624f, -0.067304f, 0.115428f, -0.130413f, -0.034031f, -0.123182f, 0.023154f, -0.128133f, -0.180145f, -0.190354f, -0.227710f, 0.046424f, -0.242329f, 0.191589f, -0.192613f, 0.017757f, -0.183678f, 0.028070f, 0.018087f, 0.041998f, -0.034735f, 0.082520f, 0.011877f, 0.004505f, -0.105183f, 0.152684f, 0.005297f, 0.051059f, -0.145560f, -0.060502f, 0.019684f, -0.023017f, -0.115030f, 0.142887f, 0.134387f, -0.113020f, -0.080788f, 0.220654f, -0.048412f, -0.010600f, 0.124776f, 0.028034f, -0.096121f, -0.025840f, 0.054905f, 0.074492f, -0.020499f, -0.008732f, 0.105714f, 0.131860f, -0.085704f, -0.077142f, -0.065399f, -0.105872f, -0.076897f, 0.045866f, 0.047231f, -0.012407f, -0.060822f, 0.137778f, -0.093310f, 0.109150f, -0.049926f, -0.056349f, -0.100577f, -0.123582f, 0.099005f, -0.037534f, 0.004755f, 0.020501f, 0.111316f, -0.033723f, -0.013589f, 0.031893f, -0.129449f, 0.026979f, 0.029319f, -0.035928f, -0.052772f, -0.085269f, 0.082190f, 0.180030f, -0.072024f, 0.167453f, 0.152281f, 0.126816f, 0.010857f, -0.102319f, 0.076951f, 0.012400f, 0.105032f, 0.176358f, 0.085285f, -0.073032f, 0.059435f, 0.042138f, -0.058368f, 0.088998f, -0.035632f, -0.022728f, -0.065846f, -0.012816f, 0.012557f, -0.103827f, 0.082956f, -0.086836f, -0.009086f, 0.041311f, -0.090752f, -0.081592f, 0.070503f, 0.143278f, 0.071637f, -0.107224f, 0.145818f, 0.068740f, -0.110142f, -0.019533f, 0.090692f, 0.076837f, -0.008019f, 0.045823f, -0.142682f, -0.007554f, 0.025447f, 0.135021f, 0.111476f, 0.104948f, 0.055294f, -0.045911f, 0.042114f, -0.048039f, -0.087155f, 0.022792f, -0.090182f, 0.156624f, 0.128837f, -0.054100f, -0.092152f, -0.019606f, 0.130886f, 0.020667f, -0.097564f, 0.137663f, -0.029084f, 0.026461f, 0.086485f, 0.063626f, 0.034437f, 0.116171f, 0.018471f, -0.026305f, -0.126157f, -0.054094f, 0.073827f, -0.036681f, -0.114135f, -0.042373f, 0.048340f, 0.000183f, 0.055797f, -0.129147f, 0.078865f, -0.062348f, 0.063849f, -0.142422f, -0.098756f, -0.052390f, 0.016933f, -0.048518f, -0.107063f, -0.007484f, -0.032485f, -0.013287f, 0.106831f, 0.111296f, 0.126652f, -0.037948f, -0.051564f, -0.127519f, -0.086276f, -0.069274f, -0.014063f, -0.144030f, 0.096627f, 0.147303f, 0.052101f, 0.105073f, -0.035790f, -0.009592f, 0.104302f, 0.150680f, -0.175424f, -0.043076f, -0.034513f, -0.129933f, 0.004040f, -0.135418f, -0.022749f, -0.122959f, -0.018157f, -0.143490f, -0.043598f, 0.103369f, -0.019681f, -0.002691f, -0.090260f, -0.112945f, -0.139830f, 0.068161f, 0.102236f, -0.087772f, -0.068737f, -0.108057f, -0.030143f, 0.115246f, -0.003431f, 0.096974f, 0.089229f, -0.047311f, -0.076901f, -0.097723f, -0.047962f, -0.123879f, -0.138414f, -0.114882f, -0.063282f, -0.121114f, 0.056433f, -0.087438f, 0.055624f, 0.045983f, -0.006468f, 0.055632f, -0.027120f, -0.114339f, -0.111487f, 0.073317f, 0.074307f, 0.093055f, 0.036487f, -0.103571f, -0.056865f, 0.043308f, -0.074746f, 0.136041f, -0.074923f, 0.011765f, 0.067081f, -0.126188f, 0.010407f, -0.046460f, 0.051840f, 0.144870f, -0.011520f, 0.075865f, -0.154526f, 0.135089f, 0.154721f, -0.026156f, 0.064046f, -0.064393f, -0.082751f, -0.110370f, -0.118623f, 0.113909f, -0.040199f, 0.049128f, 0.081746f, 0.014702f, 0.120616f, 0.051616f, 0.070641f, 0.055463f, -0.025870f, 0.111891f, -0.117035f, -0.013548f, 0.088476f, 0.026630f, 0.086374f, -0.038162f, -0.101586f, 0.077760f, -0.074108f, 0.134220f, -0.008712f, -0.125798f, -0.128795f, -0.056638f, 0.027840f, -0.142129f, 0.124441f, 0.015476f, 0.081272f, 0.006996f, 0.111032f, -0.128169f, 0.089361f, 0.027907f, 0.142432f, -0.086769f, -0.017853f, -0.008342f, 0.123477f, -0.173805f, -0.023890f, 0.040849f, -0.088521f, -0.019553f, -0.179872f, -0.093822f, 0.057282f, -0.109530f, 0.107593f, -0.120265f, 0.026787f, -0.010737f, -0.016772f, -0.126472f, -0.086067f, -0.020615f, -0.052959f, 0.157375f, 0.101899f, -0.088717f, -0.099911f, -0.148958f, 0.105514f, -0.024978f, 0.133839f, 0.073630f, 0.015902f, 0.080858f, -0.053324f, -0.000258f, -0.013403f, 0.106139f, 0.118209f, -0.028482f, 0.116889f, 0.058642f, -0.146892f, 0.103064f, -0.090665f, 0.090922f, 0.145558f, 0.118656f, 0.072421f, -0.065773f, 0.079291f, 0.099968f, 0.138109f, 0.049278f, -0.143593f, -0.017009f, -0.100168f, -0.070354f, 0.099676f, 0.070724f, 0.113897f, 0.215524f, 0.216146f, -0.246520f, 0.147954f, -0.221914f, -0.044116f, 0.121411f, 0.189484f, 0.028888f, 0.208202f, -0.046650f, -0.060478f, 0.157560f, 0.170836f, -0.076702f, 0.182015f, 0.012907f, 0.009897f, -0.077571f, 0.107705f, -0.206478f, 0.288552f, 0.049347f, 0.093849f, -0.055993f, 0.112191f, 0.130188f, 0.065418f, -0.013674f, -0.066748f, 0.012631f, 0.041062f, -0.148853f, 0.058534f, 0.065395f, -0.061626f, 0.011151f, -0.120030f, 0.011836f, -0.029725f, 0.006115f, -0.095995f, -0.122390f, 0.001498f, 0.120072f, -0.027092f, 0.056825f, 0.147955f, 0.031473f, -0.036295f, 0.002876f, 0.081620f, 0.130176f, 0.088075f, 0.132359f, 0.153281f, -0.021118f, 0.127670f, -0.048621f, -0.140966f, 0.132006f, -0.104978f, 0.027932f, -0.068175f, -0.032619f, 0.113028f, -0.140558f, 0.147112f, 0.037712f, -0.059499f, 0.080587f, 0.131473f, -0.062575f, 0.015780f, -0.099286f, 0.004601f, -0.053219f, 0.008193f, -0.105639f, 0.039854f, 0.052378f, -0.019643f, -0.022560f, -0.081421f, -0.007876f, -0.107232f, 0.010411f, -0.099176f, -0.015364f, -0.069060f, 0.121463f, -0.088830f, -0.009533f, 0.060572f, -0.100961f, -0.065419f, 0.015256f, -0.123076f, 0.005978f, 0.134687f, -0.096617f, -0.087164f, -0.056482f, -0.059656f, -0.049444f, 0.139625f, -0.031502f, 0.032995f, -0.092444f, 0.018598f, -0.040623f, 0.022501f, 0.028134f, -0.025369f, 0.002049f, -0.016863f, 0.103418f, 0.120770f, 0.141061f, 0.105067f, 0.038849f, 0.095683f, -0.046376f, -0.068373f, 0.063526f, 0.011715f, 0.080289f, 0.053610f, -0.030131f, -0.039761f, 0.094304f, 0.023542f, -0.002443f, 0.037728f, 0.120724f, -0.052657f, 0.151200f, 0.002057f, 0.005577f, 0.100242f, 0.105395f, 0.030952f, -0.115261f, 0.134265f, -0.094336f, 0.152485f, 0.064982f, -0.138272f, 0.072126f, -0.056514f, 0.002251f, 0.024332f, 0.043469f, 0.058491f, 0.068883f, 0.075788f, 0.079604f, 0.141574f, 0.089971f, -0.027850f, 0.082792f, -0.105586f, 0.154183f, -0.064700f, 0.014246f, -0.143902f, 0.002309f, -0.144560f, 0.127960f, -0.059962f, 0.109157f, 0.071965f, 0.072254f, 0.062902f, 0.135313f, -0.047332f, 0.096876f, 0.047607f, 0.079949f, 0.003465f, -0.039402f, -0.143919f, -0.068333f, 0.133615f, 0.014746f, 0.011099f, 0.088009f, 0.037404f, 0.102937f, -0.027881f, -0.111236f, -0.090994f, -0.131262f, -0.088246f, 0.066510f, -0.053362f, -0.031067f, -0.064708f, -0.062835f, 0.041440f, 0.147878f, -0.029044f, 0.016631f, -0.068804f, 0.075913f, -0.087809f, 0.077094f, 0.031302f, 0.059327f, 0.080757f, 0.147338f, -0.149978f, -0.022629f, -0.141338f, -0.103251f, -0.085556f, 0.033663f, -0.088331f, -0.016297f, 0.029658f, 0.095220f, 0.091163f, 0.074191f, 0.173160f, 0.132447f, -0.000658f, 0.008861f, 0.034518f, -0.052171f, -0.013583f, 0.011880f, 0.154016f, 0.026950f, 0.054764f, -0.173696f, -0.050601f, -0.064174f, -0.034204f, -0.072963f, 0.094872f, -0.105848f, -0.071830f, -0.135518f, -0.070527f, 0.067427f, -0.048584f, 0.156366f, 0.028189f, 0.054035f, 0.011073f, 0.192198f, -0.055463f, -0.164482f, -0.007364f, -0.047828f, -0.117712f, -0.001989f, 0.109143f, -0.064569f, 0.100269f, 0.035395f, 0.124372f, -0.024114f, 0.073318f, -0.104915f, -0.072279f, -0.028223f, -0.148792f, 0.002332f, -0.106255f, 0.090457f, -0.046760f, -0.062868f, -0.153511f, -0.094414f, -0.069274f, 0.116591f, 0.013085f, 0.146138f, -0.091329f, 0.035845f, 0.103184f, -0.075124f, -0.043100f, 0.124098f, -0.013905f, 0.088613f, -0.159528f, 0.026047f, 0.040057f, -0.095107f, -0.023769f, -0.017140f, -0.044084f, 0.010866f, 0.071627f, 0.024426f, 0.049055f, 0.148954f, 0.023548f, -0.009158f, 0.098552f, -0.101342f, -0.081952f, -0.067344f, 0.137984f, -0.127995f, 0.005889f, 0.099547f, -0.116215f, 0.080445f, 0.086755f, -0.080167f, -0.066069f, 0.000126f, 0.011293f, -0.006175f, -0.017956f, -0.175228f, -0.069649f, 0.060045f, -0.142645f, -0.001315f, 0.076154f, 0.028934f, -0.052333f, -0.139335f, 0.042710f, 0.187840f, -0.161912f, -0.071926f, 0.086573f, 0.065982f, -0.058792f, -0.099703f, -0.061222f, 0.169027f, -0.047467f, -0.034632f, -0.153802f, -0.053376f, 0.078916f, 0.095397f, -0.034801f, -0.013195f, 0.025866f, -0.189148f, -0.109638f, 0.077382f, -0.064303f, 0.035545f, -0.006339f, 0.078725f, -0.061134f, 0.072451f, 0.124789f, -0.155149f, 0.071378f, 0.035095f, -0.034454f, -0.115984f, 0.109436f, -0.031551f, 0.067032f, -0.041184f, 0.153060f, -0.033135f, 0.118529f, 0.100057f, 0.093280f, 0.023363f, -0.045123f, -0.077819f, -0.007578f, -0.051672f, -0.061599f, -0.152984f, -0.028920f, 0.023939f, -0.013830f, -0.131926f, 0.075282f, 0.092580f, 0.123884f, 0.076632f, -0.007682f, -0.003280f, -0.092054f, -0.116091f, -0.007749f, 0.066026f, -0.117260f, -0.076607f, -0.036701f, -0.039244f, -0.151129f, 0.129801f, 0.055444f, 0.010138f, 0.009366f, -0.123180f, 0.084703f, 0.133047f, -0.057520f, -0.018888f, 0.050378f, -0.042733f, 0.057185f, 0.139280f, 0.126527f, 0.119661f, 0.140681f, -0.038174f, -0.044308f, -0.019420f, 0.061362f, 0.024388f, 0.006682f, -0.007896f, -0.086433f, 0.120230f, -0.144028f, -0.113895f, 0.050447f, 0.057540f, 0.053175f, 0.054367f, -0.153825f, -0.107685f, -0.099592f, 0.063922f, 0.147092f, -0.105079f, -0.105339f, 0.064118f, 0.137566f, 0.070402f, -0.128599f, -0.084629f, 0.159743f, 0.037148f, 0.066715f, 0.039381f, -0.036821f, 0.121769f, -0.125712f, 0.021051f, -0.099256f, -0.012635f, 0.016084f, -0.048330f, 0.124360f, 0.019673f, 0.145442f, -0.080785f, 0.000200f, -0.009527f, 0.014452f, 0.124924f, -0.028523f, -0.053750f, -0.096003f, 0.056809f, -0.090551f, 0.081276f, -0.132911f, -0.003324f, 0.066137f, -0.016703f, -0.047387f, -0.075625f, 0.127752f, -0.035644f, 0.097547f, -0.088474f, 0.100706f, 0.020456f, -0.136339f, 0.093093f, -0.114792f, -0.076562f, 0.127246f, 0.040657f, 0.005517f, 0.086777f, -0.067666f, 0.175502f, -0.075788f, 0.100169f, 0.010287f, 0.034476f, -0.125727f, -0.057010f, -0.031901f, -0.167338f, -0.194475f, 0.077661f, 0.061246f, 0.034259f, 0.164563f, 0.010855f, -0.010547f, 0.150909f, -0.121518f, 0.095729f, -0.099982f, 0.151677f, 0.144764f, 0.015547f, -0.134506f, -0.043142f, 0.003524f, -0.008640f, 0.089311f, -0.121609f, -0.023608f, -0.168661f, 0.032365f, -0.043425f, -0.035037f, -0.036868f, -0.027537f, 0.037055f, -0.082218f, 0.191397f, -0.004998f, 0.172278f, 0.158539f, 0.096763f, -0.018397f, 0.027145f, 0.141895f, -0.000329f, 0.163756f, 0.010930f, 0.151585f, 0.037688f, -0.016702f, 0.150909f, 0.048852f, 0.080975f, -0.041313f, -0.142563f, -0.052863f, -0.030867f, -0.099113f, -0.028060f, -0.032077f, 0.095040f, -0.115638f, -0.145305f, -0.016214f, 0.015739f, 0.098549f, 0.207778f, 0.101795f, 0.001157f, -0.124192f, -0.013268f, 0.088998f, -0.059079f, 0.174385f, -0.081814f, -0.133801f, 0.013852f, -0.072256f, -0.047450f, -0.050368f, 0.038656f, 0.075774f, -0.083174f, -0.055724f, 0.127175f, -0.115274f, -0.064813f, -0.106307f, 0.086871f, -0.018693f, -0.124344f, -0.039680f, 0.106545f, 0.151051f, 0.092548f, 0.114430f, 0.051151f, -0.074060f, 0.098107f, 0.139494f, 0.063908f, -0.110572f, -0.100148f, 0.024257f, 0.077384f, -0.087286f, 0.155865f, 0.117300f, 0.064831f, -0.058711f, -0.080860f, -0.136603f, -0.003240f, 0.096130f, -0.128281f, -0.101285f, 0.016413f, -0.009394f, 0.070747f, 0.056394f, 0.053137f, -0.026153f, 0.037859f, 0.059757f, 0.106488f, -0.072202f, 0.017702f, -0.029544f, 0.161840f, 0.001998f, 0.169505f, -0.116605f, -0.110096f, -0.110738f, -0.178093f, 0.061314f, -0.046107f, 0.075322f, 0.127897f, -0.076870f, -0.088288f, 0.014836f, -0.038054f, 0.053638f, 0.006374f, 0.104088f, 0.000173f, 0.019852f, 0.087946f, -0.192701f, 0.104006f, -0.100319f, -0.034520f, 0.104244f, 0.064446f, -0.056361f, 0.008219f, -0.061541f, 0.005021f, 0.102857f, -0.051420f, -0.093889f, -0.034362f, 0.054659f, 0.082766f, -0.030999f, 0.068454f, -0.048182f, -0.098428f, 0.030051f, -0.112257f, -0.009850f, -0.124557f, 0.061079f, -0.040064f, 0.175423f, -0.088705f, 0.089451f, 0.070922f, 0.059456f, 0.077587f, -0.060846f, 0.014461f, 0.032071f, -0.050081f, -0.063899f, -0.119016f, 0.077551f, -0.034427f, -0.063890f, 0.124131f, -0.142034f, -0.062594f, 0.138201f, 0.083560f, 0.057280f, 0.131036f, -0.062081f, -0.080305f, -0.046162f, -0.040393f, -0.002016f, -0.029051f, -0.083978f, -0.065176f, 0.035751f, -0.118423f, 0.107762f, 0.074458f, 0.040946f, 0.070601f, -0.075700f, 0.040467f, -0.006913f, 0.014456f, 0.049373f, -0.082445f, 0.001954f, 0.069789f, 0.122404f, -0.052301f, -0.141318f, -0.029663f, -0.043626f, 0.088679f, 0.127246f, 0.088505f, 0.101404f, -0.075121f, -0.128869f, 0.073331f, 0.117018f, -0.002786f, 0.030550f, 0.011369f, 0.033289f, -0.004960f, 0.126960f, 0.107679f, -0.025549f, 0.113264f, -0.046870f, 0.128728f, 0.024181f, -0.112134f, 0.047518f, -0.077125f, 0.081191f, -0.164632f, -0.087118f, 0.146570f, 0.095038f, -0.010363f, 0.129880f, -0.152477f, -0.071005f, 0.121651f, 0.054222f, 0.066608f, -0.119160f, -0.004858f, 0.085195f, 0.026991f, 0.044092f, 0.092997f, -0.005314f, -0.057829f, -0.002068f, 0.104882f, -0.041582f, -0.071121f, 0.002710f, 0.004481f, 0.053385f, 0.086687f, -0.104373f, -0.061594f, 0.037345f, -0.057063f, 0.002236f, 0.045246f, -0.046748f, 0.109038f, 0.111867f, 0.034616f, 0.146200f, -0.021140f, 0.017855f, 0.054049f, -0.061378f, 0.034516f, 0.101703f, -0.136907f, -0.002110f, 0.017528f, 0.041363f, 0.002445f, -0.031079f, 0.049322f, 0.031574f, 0.103369f, -0.127880f, -0.089853f, -0.053814f, -0.068854f, -0.126695f, -0.114509f, 0.136718f, -0.124473f, 0.092531f, -0.022110f, -0.171365f, -0.149181f, -0.107579f, 0.012969f, -0.014942f, -0.030940f, 0.056358f, 0.098852f, -0.116429f, -0.021096f, 0.061127f, -0.079444f, -0.052618f, -0.086627f, 0.026509f, -0.103913f, -0.004143f, -0.005296f, 0.072056f, -0.078410f, -0.124928f, 0.114049f, -0.066196f, -0.035357f, 0.113680f, 0.122926f, 0.146041f, 0.073848f, -0.146885f, 0.104131f, -0.036654f, 0.076161f, 0.179995f, 0.135972f, 0.201101f, 0.046044f, -0.004465f, -0.097903f, 0.111519f, 0.050917f, 0.147450f, -0.128303f, -0.088041f, -0.162727f, -0.133671f, 0.044808f, -0.008029f, 0.148122f, 0.150632f, -0.124389f, -0.199437f, -0.007471f, -0.038429f, -0.081996f, 0.167960f, 0.001497f, 0.206680f, -0.050312f, -0.073388f, 0.073168f, 0.086235f, 0.006239f, 0.048588f, 0.003787f, -0.123755f, 0.028641f, -0.142309f, 0.027140f, -0.048395f, -0.040258f, 0.144311f, -0.133151f, -0.094039f, -0.009860f, -0.060587f, 0.067635f, 0.126462f, -0.004349f, 0.030398f, 0.108765f, -0.046442f, -0.085058f, -0.114749f, 0.121015f, 0.116497f, 0.046003f, -0.023586f, 0.053074f, 0.100148f, -0.080198f, -0.027182f, -0.099798f, -0.092755f, -0.119324f, -0.155714f, 0.073914f, -0.017086f, 0.104745f, -0.067049f, -0.018121f, -0.185548f, 0.130659f, -0.022281f, -0.021098f, 0.011136f, -0.053592f, -0.163015f, 0.098046f, 0.010777f, 0.066132f, 0.021149f, 0.046889f, -0.039212f, 0.106922f, 0.064699f, 0.114349f, 0.017099f, 0.036504f, 0.061449f, 0.048853f, -0.009006f, -0.031878f, -0.066912f, -0.130179f, 0.092407f, 0.073437f, 0.142406f, 0.072951f, 0.005839f, -0.007240f, -0.015244f, -0.068331f, 0.149715f, -0.104144f, 0.156149f, -0.030206f, 0.043340f, 0.004362f, -0.039300f, -0.118652f, 0.067468f, 0.022867f, 0.121366f, 0.165705f, -0.031812f, 0.081717f, 0.080295f, -0.043481f, -0.066506f, -0.142690f, 0.114406f, 0.035339f, 0.127145f, -0.097638f, -0.083034f, -0.020028f, 0.099156f, -0.042721f, 0.081178f, -0.169781f, 0.081336f, -0.040630f, -0.069615f, 0.039550f, -0.099869f, 0.139561f, -0.186595f, -0.027740f, 0.006286f, 0.006226f, -0.156757f, -0.014466f, -0.049433f, -0.060390f, 0.080485f, -0.019053f, -0.177506f, 0.062919f, 0.100920f, 0.023750f, -0.124873f, 0.079643f, -0.030238f, -0.017938f, -0.073049f, 0.164542f, 0.005647f, 0.029670f, -0.042932f, 0.029820f, -0.153459f, 0.116819f, 0.066817f, 0.089917f, 0.090089f, -0.077865f, -0.146496f, 0.095737f, 0.042930f, -0.114138f, -0.130319f, 0.070367f, -0.037375f, 0.116515f, -0.126511f, 0.128465f, 0.072931f, -0.104496f, 0.063072f, 0.157762f, -0.010231f, 0.123906f, 0.135131f, 0.079866f, -0.090884f, -0.071646f, 0.144923f, 0.062339f, -0.099465f, -0.036402f, 0.076479f, -0.104348f, 0.050083f, 0.141211f, 0.115092f, 0.131502f, -0.052301f, -0.033270f, 0.116639f, 0.038973f, 0.146108f, 0.003988f, 0.033411f, 0.037283f, -0.012859f, 0.035833f, -0.098669f, -0.049060f, 0.140044f, 0.083801f, 0.123954f, -0.065765f, -0.062747f, 0.048678f, -0.007383f, -0.072987f, -0.049540f, 0.083583f, 0.189045f, -0.047296f, -0.099427f, -0.002930f, 0.086366f, -0.083954f, 0.066317f, 0.161342f, 0.132499f, 0.000999f, 0.039733f, -0.127483f, 0.120541f, 0.005861f, 0.026767f, -0.050309f, 0.074224f, -0.102107f, -0.124096f, -0.067617f, 0.035917f, 0.083125f, 0.085223f, 0.086600f, 0.081135f, 0.024000f, 0.059700f, -0.143165f, 0.139894f, -0.050077f, 0.034424f, 0.001912f, 0.128806f, 0.103874f, -0.094773f, -0.097831f, 0.039155f, -0.022457f, 0.007243f, 0.141018f, -0.056590f, 0.099795f, -0.004148f, 0.084778f, -0.019497f, -0.094052f, -0.036418f, 0.120704f, 0.085017f, -0.028724f, -0.080761f, -0.116099f, -0.089012f, 0.062876f, -0.105981f, -0.008948f, -0.138706f, 0.122670f, 0.081059f, -0.128396f, 0.030518f, -0.037561f, 0.138962f, -0.107645f, 0.072031f, 0.009506f, -0.068843f, -0.053002f, 0.109760f, -0.111206f, 0.032169f, -0.085109f, -0.139499f, -0.051750f, 0.049024f, 0.106971f, -0.098848f, -0.098053f, 0.147964f, 0.097887f, -0.066936f, -0.145565f, 0.106953f, -0.031682f, -0.111789f, -0.066078f, 0.123146f, 0.131874f, -0.061410f, 0.132935f, 0.012104f, 0.130822f, 0.076764f, -0.085380f, -0.099663f, 0.086249f, 0.114061f, 0.093408f, 0.054670f, -0.020859f, 0.136671f, -0.100833f, -0.076125f, -0.006850f, -0.098807f, -0.092823f, -0.045135f, 0.100843f, 0.000574f, -0.017267f, -0.047230f, -0.137694f, -0.007496f, -0.035722f, -0.113731f, -0.007980f, -0.059836f, -0.044882f, 0.059341f, 0.078180f, 0.038324f, 0.096532f, -0.043554f, 0.158143f, -0.139048f, 0.063050f, -0.078203f, 0.039654f, 0.107237f, 0.115524f, 0.020699f, -0.097802f, 0.081351f, 0.165626f, -0.097397f, 0.119501f, -0.055085f, 0.087746f, 0.110512f, -0.043342f, -0.098049f, -0.111952f, 0.028723f, -0.044017f, 0.094542f, 0.079357f, -0.130741f, -0.032197f, -0.139235f, 0.066447f, 0.085179f, 0.104233f, 0.044381f, 0.006622f, 0.095390f, -0.131673f, 0.123245f, 0.048154f, 0.124112f, 0.115845f, 0.015595f, 0.010208f, -0.026584f, -0.054577f, 0.102117f, 0.103085f, 0.085363f, 0.122599f, -0.045806f, 0.003312f, -0.084145f, -0.050294f, 0.008693f, -0.019100f, -0.141798f, -0.035880f, -0.034090f, 0.045997f, -0.056479f, 0.104474f, -0.024664f, 0.150750f, -0.081805f, -0.120855f, 0.075788f, 0.071225f, -0.090222f, -0.004171f, 0.009243f, 0.102165f, 0.032741f, 0.133141f, -0.028181f, -0.112253f, -0.039629f, -0.124893f, 0.023906f, 0.127415f, 0.072001f, 0.094204f, 0.027351f, -0.091313f, -0.028352f, -0.145221f, 0.110700f, 0.007242f, 0.142586f, 0.129771f, 0.110288f, -0.005338f, 0.108733f, 0.091679f, 0.061154f, 0.084061f, -0.097903f, 0.071851f, 0.071805f, 0.093974f, -0.182327f, 0.058572f, 0.130027f, -0.024243f, 0.005860f, 0.111547f, -0.060922f, -0.177714f, -0.020261f, -0.085822f, -0.012707f, 0.025258f, 0.140416f, -0.031500f, -0.119002f, 0.062069f, -0.010173f, -0.005896f, -0.002974f, 0.003723f, -0.065318f, 0.102834f, -0.003155f, 0.059500f, 0.020986f, -0.032406f, -0.049992f, -0.060278f, -0.068261f, -0.041405f, 0.030018f, 0.114001f, 0.060272f, -0.074088f, 0.113392f, -0.023061f, 0.120512f, 0.083272f, -0.068043f, -0.121290f, -0.102184f, 0.002537f, -0.024846f, -0.041650f, 0.110242f, -0.037305f, -0.107972f, 0.089328f, 0.043696f, 0.078930f, 0.019337f, 0.075412f, -0.010425f, -0.120026f, -0.097188f, 0.046936f, 0.031084f, -0.020527f, 0.026463f, -0.072893f, -0.013263f, 0.006430f, -0.040006f, 0.072284f, 0.095215f, 0.129226f, 0.146189f, -0.048591f, -0.121814f, 0.142967f, 0.113386f, 0.051589f, -0.075723f, 0.039015f, -0.082378f, 0.072637f, 0.033554f, 0.062688f, -0.096005f, -0.029427f, 0.085282f, -0.073788f, -0.017094f, 0.153168f, 0.146485f, -0.131403f, 0.113457f, -0.036698f, -0.055819f, 0.107066f, 0.172603f, 0.011723f, -0.019714f, 0.036440f, 0.138790f, -0.014501f, 0.156012f, 0.113608f, -0.033303f, 0.130429f, -0.001505f, -0.103114f, -0.055074f, -0.080389f, 0.069769f, 0.074975f, 0.077056f, 0.131233f, -0.133429f, 0.108801f, -0.102047f, 0.019440f, -0.019592f, -0.006636f, -0.109037f, -0.006021f, -0.089665f, 0.073503f, -0.055209f, -0.005462f, 0.111673f, -0.052047f, -0.110580f, -0.048987f, -0.050818f, -0.065865f, -0.093955f, -0.114357f, -0.070225f, 0.037140f, 0.089557f, -0.035426f, 0.094762f, 0.115706f, -0.039420f, -0.153909f, -0.056938f, 0.066012f, -0.105510f, 0.102818f, 0.025269f, 0.073340f, 0.056401f, 0.146353f, -0.022181f, -0.112128f, -0.111333f, -0.127558f, 0.093993f, -0.143767f, -0.095473f, -0.046122f, -0.002330f, -0.035046f, -0.106969f, 0.104601f, -0.069657f, -0.006778f, 0.074349f, 0.086520f, -0.099597f, -0.027491f, -0.034129f, -0.120814f, -0.091529f, -0.071078f, 0.190126f, 0.000441f, -0.007144f, -0.001052f, 0.143490f, -0.099860f, 0.170306f, 0.030796f, 0.075983f, 0.096560f, -0.010432f, -0.140368f, -0.040339f, -0.086802f, -0.032492f, 0.077238f, 0.098389f, 0.105841f, 0.058982f, 0.021727f, -0.006786f, -0.012879f, 0.002967f, -0.060867f, -0.060500f, -0.122467f, -0.039360f, -0.059299f, -0.060506f, 0.018003f, -0.075011f, 0.115580f, -0.068402f, 0.075622f, 0.089751f, -0.081073f, 0.134578f, -0.089862f, -0.019801f, -0.052883f, 0.036216f, -0.087092f, 0.078979f, -0.031300f, -0.098064f, -0.075154f, 0.010126f, 0.090432f, 0.044257f, -0.095680f, -0.150601f, 0.006350f, 0.117708f, -0.102315f, -0.032439f, -0.011829f, 0.017243f, 0.110879f, -0.018252f, 0.137902f, -0.146350f, 0.051092f, -0.137706f, -0.124396f, -0.044207f, 0.139685f, -0.029357f, -0.146471f, 0.110945f, 0.117044f, -0.044457f, 0.196116f, -0.076500f, 0.172894f, 0.148210f, 0.091592f, -0.069697f, -0.080421f, 0.002339f, -0.087566f, 0.058523f, -0.086083f, 